SVM-light Version V6.02
2 # kernel type
3 # kernel parameter -d 
1e-05 # kernel parameter -g 
1 # kernel parameter -s 
1 # kernel parameter -r 
empty# kernel parameter -u 
356 # highest feature index 
2836 # number of training documents 
977 # number of support vectors plus 1 
-7.7386179 # threshold b, each following line is a SV (starting with alpha*y)
-200 1:18.518499 2:18.518499 3:33.333302 4:29.629601 5:0 6:7.6922998 7:11.5385 8:0 9:3.8462 10:0 11:7.6922998 12:7.6922998 13:15.3846 14:3.8462 15:3.8462 16:11.5385 17:0 18:7.6922998 19:11.5385 20:7.6922998 21:0 22:0 23:0 24:0 25:0 26:0 27:4 28:4 29:4 30:0 31:0 32:8 33:0 34:0 35:0 36:0 37:0 38:4 39:0 40:0 41:0 42:0 43:0 44:0 45:0 46:4 47:4 48:0 49:0 50:4 51:0 52:0 53:0 54:4 55:12 56:0 57:4 58:0 59:0 60:0 61:4 62:0 63:0 64:0 65:0 66:4 67:8 68:0 69:0 70:0 71:0 72:0 73:0 74:0 75:4 76:4 77:8 78:0 79:0 80:4 81:0 82:0 83:4 84:4 85:0 86:0 87:0 88:0 89:0 90:0 91:0 92:0 93:0 94:0 95:0 96:0 97:0 98:0 99:0 100:0 101:0 102:0 103:0 104:0 105:0 106:0 107:0 108:0 109:0 110:0 111:4.1666999 112:0 113:0 114:0 115:0 116:0 117:0 118:0 119:4.1666999 120:0 121:0 122:0 123:0 124:0 125:0 126:0 127:0 128:0 129:0 130:4.1666999 131:4.1666999 132:0 133:0 134:0 135:0 136:0 137:0 138:0 139:0 140:0 141:0 142:0 143:0 144:0 145:0 146:0 147:0 148:0 149:0 150:0 151:0 152:0 153:0 154:0 155:0 156:4.1666999 157:0 158:0 159:0 160:0 161:0 162:0 163:0 164:0 165:0 166:0 167:0 168:0 169:0 170:0 171:0 172:0 173:0 174:0 175:0 176:0 177:0 178:0 179:0 180:0 181:0 182:0 183:0 184:0 185:4.1666999 186:0 187:0 188:0 189:4.1666999 190:0 191:0 192:0 193:0 194:0 195:0 196:0 197:0 198:0 199:0 200:0 201:0 202:0 203:4.1666999 204:0 205:0 206:0 207:0 208:0 209:0 210:0 211:0 212:0 213:0 214:0 215:0 216:0 217:0 218:0 219:4.1666999 220:0 221:4.1666999 222:0 223:0 224:8.3332996 225:0 226:0 227:0 228:0 229:0 230:4.1666999 231:0 232:0 233:0 234:0 235:0 236:0 237:0 238:0 239:0 240:0 241:0 242:0 243:0 244:0 245:0 246:0 247:4.1666999 248:0 249:0 250:0 251:0 252:0 253:0 254:0 255:0 256:0 257:0 258:0 259:0 260:0 261:0 262:0 263:0 264:0 265:0 266:0 267:0 268:4.1666999 269:4.1666999 270:0 271:0 272:4.1666999 273:0 274:0 275:0 276:0 277:0 278:0 279:0 280:0 281:0 282:0 283:0 284:0 285:0 286:0 287:0 288:0 289:0 290:0 291:0 292:0 293:0 294:0 295:0 296:0 297:0 298:0 299:0 300:0 301:0 302:4.1666999 303:0 304:0 305:0 306:4.1666999 307:0 308:0 309:0 310:4.1666999 311:4.1666999 312:0 313:0 314:0 315:0 316:0 317:0 318:0 319:0 320:0 321:0 322:0 323:4.1666999 324:0 325:0 326:0 327:0 328:0 329:0 330:0 331:0 332:0 333:4.1666999 334:0 335:0 336:0 337:0 338:0 339:4.1666999 340:0 341:0 342:-0.44800001 343:-0.62400001 344:-0.11 345:-0.211 346:0 347:-0.472 348:-0.41600001 349:-0.94 350:-0.34200001 351:-0.97799999 352:-0.89600003 353:0 354:-0.47 355:-0.84399998 356:-0.37200001 #
-200 1:12.5 2:20.8333 3:25 4:41.666698 5:0 6:4.3477998 7:4.3477998 8:4.3477998 9:4.3477998 10:8.6956997 11:4.3477998 12:4.3477998 13:8.6956997 14:4.3477998 15:4.3477998 16:8.6956997 17:0 18:4.3477998 19:13.0435 20:21.7391 21:0 22:0 23:0 24:0 25:0 26:4.5454998 27:0 28:0 29:0 30:0 31:0 32:4.5454998 33:0 34:0 35:4.5454998 36:0 37:0 38:0 39:4.5454998 40:0 41:0 42:0 43:4.5454998 44:4.5454998 45:0 46:0 47:4.5454998 48:0 49:0 50:0 51:0 52:4.5454998 53:0 54:4.5454998 55:0 56:4.5454998 57:0 58:4.5454998 59:0 60:0 61:0 62:0 63:0 64:4.5454998 65:0 66:0 67:0 68:9.0909004 69:0 70:0 71:0 72:0 73:4.5454998 74:0 75:0 76:0 77:9.0909004 78:4.5454998 79:0 80:0 81:0 82:0 83:9.0909004 84:9.0909004 85:0 86:0 87:0 88:0 89:0 90:0 91:0 92:0 93:0 94:0 95:0 96:0 97:0 98:0 99:0 100:0 101:0 102:0 103:0 104:0 105:0 106:0 107:0 108:4.7618999 109:0 110:0 111:0 112:0 113:0 114:0 115:0 116:0 117:0 118:0 119:0 120:0 121:0 122:0 123:0 124:0 125:0 126:0 127:0 128:0 129:0 130:0 131:0 132:4.7618999 133:0 134:0 135:0 136:0 137:0 138:0 139:0 140:0 141:4.7618999 142:0 143:0 144:0 145:0 146:0 147:0 148:0 149:0 150:0 151:0 152:0 153:0 154:0 155:0 156:0 157:0 158:0 159:0 160:4.7618999 161:0 162:0 163:0 164:0 165:0 166:0 167:0 168:0 169:0 170:0 171:0 172:0 173:0 174:0 175:4.7618999 176:0 177:0 178:0 179:0 180:4.7618999 181:0 182:0 183:0 184:0 185:0 186:0 187:0 188:0 189:0 190:0 191:0 192:4.7618999 193:0 194:0 195:0 196:0 197:0 198:0 199:0 200:0 201:0 202:0 203:0 204:0 205:0 206:0 207:0 208:0 209:0 210:0 211:0 212:0 213:0 214:0 215:0 216:0 217:0 218:4.7618999 219:0 220:0 221:0 222:0 223:0 224:0 225:0 226:0 227:4.7618999 228:0 229:0 230:0 231:0 232:0 233:0 234:0 235:4.7618999 236:0 237:0 238:0 239:0 240:0 241:0 242:0 243:0 244:0 245:0 246:0 247:0 248:0 249:0 250:0 251:0 252:0 253:0 254:0 255:0 256:0 257:0 258:0 259:0 260:4.7618999 261:0 262:0 263:0 264:0 265:0 266:0 267:0 268:0 269:0 270:0 271:0 272:0 273:0 274:0 275:4.7618999 276:4.7618999 277:0 278:0 279:0 280:0 281:0 282:0 283:0 284:0 285:0 286:0 287:0 288:0 289:0 290:0 291:0 292:0 293:0 294:0 295:4.7618999 296:0 297:0 298:0 299:0 300:0 301:0 302:0 303:0 304:0 305:0 306:0 307:0 308:0 309:0 310:4.7618999 311:0 312:4.7618999 313:0 314:4.7618999 315:0 316:0 317:0 318:0 319:0 320:0 321:0 322:0 323:0 324:0 325:0 326:0 327:0 328:0 329:0 330:0 331:0 332:0 333:4.7618999 334:4.7618999 335:0 336:0 337:0 338:0 339:4.7618999 340:4.7618999 341:-0.27900001 342:-0.22400001 343:-0.208 344:-0.22 345:-0.211 346:-0.65200001 347:-0.236 348:-0.208 349:-0.47 350:-0.34200001 351:-0.97799999 352:-0.67199999 353:0 354:-0.235 355:-0.84399998 356:-0.65100002 #
38.742288537662716407794505357742 1:28.5714 2:25 3:25 4:21.4286 5:11.1111 6:3.7037001 7:11.1111 8:3.7037001 9:7.4074001 10:7.4074001 11:3.7037001 12:3.7037001 13:11.1111 14:3.7037001 15:7.4074001 16:3.7037001 17:0 18:11.1111 19:3.7037001 20:7.4074001 21:3.8462 22:0 23:7.6922998 24:0 25:0 26:3.8462 27:0 28:0 29:3.8462 30:3.8462 31:3.8462 32:0 33:0 34:0 35:0 36:3.8462 37:3.8462 38:0 39:0 40:3.8462 41:3.8462 42:0 43:0 44:3.8462 45:3.8462 46:0 47:0 48:0 49:0 50:0 51:3.8462 52:0 53:3.8462 54:3.8462 55:3.8462 56:0 57:3.8462 58:0 59:0 60:0 61:3.8462 62:0 63:0 64:3.8462 65:0 66:0 67:0 68:3.8462 69:0 70:0 71:0 72:0 73:0 74:3.8462 75:3.8462 76:0 77:0 78:0 79:3.8462 80:0 81:0 82:7.6922998 83:0 84:0 85:0 86:0 87:4 88:0 89:0 90:0 91:0 92:0 93:0 94:4 95:4 96:0 97:0 98:0 99:0 100:0 101:0 102:0 103:0 104:0 105:4 106:0 107:0 108:0 109:0 110:0 111:0 112:0 113:0 114:0 115:0 116:0 117:0 118:4 119:0 120:0 121:4 122:0 123:0 124:0 125:0 126:0 127:0 128:4 129:0 130:0 131:0 132:0 133:0 134:0 135:0 136:0 137:0 138:0 139:0 140:0 141:0 142:0 143:0 144:0 145:0 146:4 147:0 148:0 149:4 150:0 151:0 152:0 153:0 154:0 155:0 156:0 157:0 158:0 159:0 160:0 161:0 162:0 163:0 164:4 165:0 166:0 167:0 168:4 169:0 170:0 171:0 172:0 173:0 174:0 175:0 176:0 177:0 178:0 179:4 180:0 181:0 182:0 183:4 184:0 185:0 186:0 187:0 188:0 189:0 190:0 191:0 192:0 193:0 194:0 195:0 196:0 197:0 198:0 199:0 200:0 201:0 202:0 203:0 204:0 205:0 206:0 207:4 208:0 209:0 210:0 211:0 212:0 213:0 214:0 215:4 216:0 217:0 218:4 219:0 220:0 221:4 222:0 223:0 224:0 225:0 226:0 227:0 228:0 229:4 230:0 231:0 232:0 233:0 234:0 235:0 236:0 237:0 238:0 239:0 240:0 241:0 242:0 243:0 244:0 245:4 246:0 247:0 248:0 249:0 250:0 251:0 252:0 253:0 254:0 255:0 256:0 257:0 258:0 259:0 260:4 261:0 262:0 263:0 264:0 265:0 266:0 267:0 268:0 269:0 270:0 271:0 272:0 273:0 274:4 275:0 276:0 277:0 278:0 279:0 280:0 281:0 282:0 283:0 284:0 285:0 286:0 287:0 288:0 289:0 290:0 291:0 292:0 293:0 294:0 295:0 296:0 297:0 298:0 299:0 300:4 301:4 302:0 303:0 304:0 305:0 306:0 307:0 308:0 309:0 310:0 311:0 312:0 313:0 314:0 315:0 316:0 317:4 318:0 319:0 320:0 321:0 322:0 323:0 324:0 325:0 326:0 327:0 328:0 329:0 330:0 331:4 332:0 333:0 334:0 335:0 336:0 337:0 338:0 339:0 340:0 341:-0.27900001 342:-0.22400001 343:-0.62400001 344:-0.11 345:-0.42199999 346:-0.97799999 347:-0.236 348:-0.208 349:-0.70499998 350:-0.68400002 351:-0.97799999 352:-0.67199999 353:0 354:-0.70499998 355:-0.211 356:-0.27900001 #
-200 1:28 2:20 3:24 4:28 5:8.3332996 6:4.1666999 7:12.5 8:0 9:4.1666999 10:4.1666999 11:4.1666999 12:8.3332996 13:12.5 14:0 15:4.1666999 16:8.3332996 17:4.1666999 18:8.3332996 19:4.1666999 20:12.5 21:0 22:0 23:8.6956997 24:0 25:0 26:0 27:0 28:4.3477998 29:4.3477998 30:0 31:4.3477998 32:4.3477998 33:0 34:0 35:0 36:0 37:0 38:0 39:4.3477998 40:0 41:4.3477998 42:0 43:0 44:0 45:0 46:0 47:0 48:4.3477998 49:0 50:0 51:0 52:8.6956997 53:4.3477998 54:4.3477998 55:0 56:0 57:0 58:0 59:0 60:0 61:4.3477998 62:0 63:0 64:0 65:0 66:4.3477998 67:0 68:4.3477998 69:4.3477998 70:0 71:0 72:0 73:0 74:4.3477998 75:4.3477998 76:0 77:4.3477998 78:0 79:0 80:0 81:4.3477998 82:4.3477998 83:4.3477998 84:0 85:0 86:0 87:0 88:0 89:0 90:0 91:0 92:0 93:4.5454998 94:0 95:0 96:4.5454998 97:0 98:0 99:0 100:0 101:0 102:0 103:0 104:0 105:0 106:0 107:0 108:0 109:0 110:0 111:0 112:0 113:0 114:0 115:0 116:4.5454998 117:0 118:4.5454998 119:0 120:0 121:0 122:0 123:0 124:0 125:4.5454998 126:0 127:0 128:0 129:0 130:4.5454998 131:0 132:0 133:0 134:0 135:0 136:0 137:0 138:0 139:0 140:0 141:0 142:0 143:0 144:0 145:0 146:0 147:0 148:0 149:0 150:0 151:0 152:0 153:0 154:0 155:0 156:0 157:0 158:0 159:4.5454998 160:0 161:0 162:0 163:0 164:0 165:0 166:0 167:4.5454998 168:0 169:0 170:0 171:0 172:0 173:0 174:0 175:0 176:0 177:0 178:0 179:0 180:0 181:0 182:0 183:0 184:0 185:0 186:0 187:0 188:0 189:0 190:0 191:0 192:0 193:0 194:0 195:0 196:4.5454998 197:0 198:0 199:0 200:0 201:0 202:0 203:0 204:0 205:0 206:0 207:0 208:0 209:4.5454998 210:0 211:4.5454998 212:0 213:0 214:0 215:4.5454998 216:0 217:0 218:0 219:0 220:4.5454998 221:0 222:0 223:0 224:0 225:0 226:0 227:0 228:0 229:0 230:0 231:0 232:0 233:0 234:0 235:0 236:0 237:0 238:0 239:0 240:0 241:0 242:0 243:0 244:0 245:0 246:0 247:0 248:0 249:0 250:0 251:0 252:0 253:0 254:0 255:0 256:0 257:0 258:0 259:0 260:0 261:0 262:0 263:0 264:0 265:0 266:0 267:4.5454998 268:0 269:0 270:0 271:0 272:0 273:0 274:4.5454998 275:0 276:0 277:0 278:0 279:4.5454998 280:0 281:0 282:0 283:0 284:0 285:0 286:0 287:0 288:0 289:0 290:0 291:0 292:0 293:0 294:0 295:0 296:0 297:4.5454998 298:0 299:0 300:0 301:0 302:0 303:0 304:4.5454998 305:0 306:0 307:0 308:0 309:4.5454998 310:0 311:0 312:0 313:0 314:0 315:0 316:0 317:0 318:0 319:0 320:0 321:0 322:0 323:0 324:0 325:4.5454998 326:0 327:0 328:0 329:0 330:4.5454998 331:0 332:0 333:4.5454998 334:0 335:0 336:0 337:0 338:0 339:0 340:0 341:-0.37200001 342:-0.22400001 343:-0.62400001 344:-0.11 345:-0.211 346:-0.32600001 347:-0.236 348:-0.41600001 349:-0.70499998 350:0 351:-0.97799999 352:-0.67199999 353:-0.133 354:-0.47 355:-0.42199999 356:-0.465 #
37.967244657385890604928135871887 1:35.714298 2:3.5713999 3:46.4286 4:14.2857 5:14.8148 6:0 7:18.518499 8:3.7037001 9:0 10:0 11:3.7037001 12:0 13:18.518499 14:0 15:18.518499 16:7.4074001 17:3.7037001 18:3.7037001 19:7.4074001 20:0 21:3.8462 22:0 23:7.6922998 24:3.8462 25:0 26:0 27:0 28:0 29:7.6922998 30:0 31:7.6922998 32:3.8462 33:0 34:0 35:3.8462 36:0 37:0 38:0 39:0 40:0 41:0 42:0 43:0 44:0 45:0 46:0 47:3.8462 48:0 49:0 50:0 51:0 52:0 53:7.6922998 54:0 55:11.5385 56:0 57:0 58:0 59:0 60:0 61:3.8462 62:0 63:7.6922998 64:3.8462 65:3.8462 66:3.8462 67:0 68:0 69:3.8462 70:0 71:0 72:0 73:0 74:0 75:3.8462 76:0 77:7.6922998 78:0 79:0 80:0 81:0 82:0 83:0 84:0 85:0 86:0 87:4 88:0 89:0 90:0 91:0 92:0 93:4 94:0 95:4 96:0 97:0 98:0 99:4 100:0 101:0 102:0 103:0 104:0 105:0 106:0 107:0 108:0 109:0 110:0 111:0 112:0 113:0 114:0 115:0 116:0 117:4 118:0 119:4 120:0 121:0 122:0 123:0 124:0 125:0 126:0 127:4 128:4 129:4 130:0 131:0 132:0 133:0 134:0 135:0 136:0 137:0 138:0 139:0 140:0 141:4 142:0 143:0 144:0 145:0 146:0 147:0 148:0 149:0 150:0 151:0 152:0 153:0 154:0 155:0 156:0 157:0 158:0 159:0 160:0 161:0 162:0 163:0 164:0 165:0 166:0 167:0 168:0 169:0 170:0 171:0 172:0 173:0 174:0 175:0 176:0 177:0 178:0 179:0 180:0 181:0 182:0 183:0 184:0 185:0 186:0 187:0 188:0 189:4 190:0 191:0 192:0 193:0 194:0 195:0 196:0 197:0 198:0 199:0 200:0 201:0 202:0 203:0 204:0 205:0 206:0 207:0 208:0 209:0 210:0 211:0 212:0 213:4 214:0 215:4 216:0 217:0 218:0 219:0 220:0 221:4 222:0 223:4 224:4 225:0 226:0 227:0 228:0 229:0 230:0 231:0 232:0 233:0 234:0 235:0 236:0 237:0 238:0 239:0 240:0 241:0 242:0 243:0 244:0 245:4 246:0 247:0 248:0 249:0 250:0 251:0 252:0 253:0 254:0 255:4 256:0 257:0 258:4 259:0 260:0 261:4 262:0 263:0 264:0 265:0 266:0 267:4 268:0 269:0 270:0 271:0 272:0 273:0 274:0 275:0 276:0 277:0 278:0 279:0 280:4 281:0 282:0 283:0 284:0 285:0 286:0 287:0 288:0 289:0 290:0 291:0 292:0 293:0 294:0 295:0 296:0 297:0 298:0 299:0 300:0 301:0 302:0 303:4 304:0 305:0 306:0 307:0 308:0 309:0 310:0 311:8 312:0 313:0 314:0 315:0 316:0 317:0 318:0 319:0 320:0 321:0 322:0 323:0 324:0 325:0 326:0 327:0 328:0 329:0 330:0 331:0 332:0 333:0 334:0 335:0 336:0 337:0 338:0 339:0 340:0 341:-0.37200001 342:0 343:-1.04 344:-0.11 345:0 346:0 347:-0.236 348:-0.208 349:-1.175 350:-0.34200001 351:-1.63 352:-0.67199999 353:-0.133 354:-0.47 355:-0.42199999 356:0 #
200 1:24 2:24 3:24 4:28 5:8.3332996 6:4.1666999 7:8.3332996 8:4.1666999 9:4.1666999 10:4.1666999 11:4.1666999 12:12.5 13:4.1666999 14:8.3332996 15:4.1666999 16:8.3332996 17:8.3332996 18:8.3332996 19:8.3332996 20:0 21:0 22:4.3477998 23:4.3477998 24:0 25:0 26:4.3477998 27:0 28:0 29:4.3477998 30:0 31:4.3477998 32:0 33:0 34:4.3477998 35:0 36:0 37:0 38:0 39:4.3477998 40:0 41:4.3477998 42:0 43:0 44:0 45:0 46:0 47:0 48:4.3477998 49:4.3477998 50:4.3477998 51:4.3477998 52:0 53:0 54:0 55:0 56:4.3477998 57:0 58:0 59:4.3477998 60:4.3477998 61:0 62:4.3477998 63:0 64:0 65:4.3477998 66:0 67:0 68:0 69:8.6956997 70:0 71:0 72:0 73:0 74:0 75:0 76:8.6956997 77:0 78:4.3477998 79:0 80:4.3477998 81:0 82:0 83:0 84:0 85:0 86:0 87:0 88:0 89:0 90:4.5454998 91:0 92:0 93:4.5454998 94:0 95:0 96:0 97:0 98:0 99:0 100:0 101:0 102:0 103:0 104:0 105:4.5454998 106:0 107:0 108:0 109:0 110:0 111:0 112:0 113:0 114:0 115:0 116:0 117:0 118:0 119:0 120:4.5454998 121:0 122:0 123:0 124:0 125:0 126:4.5454998 127:0 128:0 129:0 130:0 131:0 132:0 133:0 134:0 135:0 136:0 137:0 138:0 139:0 140:4.5454998 141:0 142:0 143:0 144:0 145:0 146:0 147:0 148:0 149:0 150:0 151:0 152:0 153:0 154:0 155:0 156:0 157:0 158:0 159:4.5454998 160:0 161:0 162:0 163:0 164:0 165:0 166:0 167:4.5454998 168:0 169:0 170:0 171:0 172:0 173:0 174:0 175:0 176:0 177:0 178:0 179:0 180:0 181:0 182:0 183:0 184:0 185:0 186:0 187:0 188:0 189:0 190:0 191:0 192:0 193:0 194:0 195:0 196:0 197:4.5454998 198:0 199:0 200:0 201:0 202:0 203:0 204:4.5454998 205:0 206:4.5454998 207:0 208:0 209:0 210:0 211:0 212:0 213:0 214:0 215:0 216:0 217:0 218:0 219:0 220:0 221:0 222:0 223:0 224:0 225:0 226:4.5454998 227:0 228:0 229:0 230:0 231:0 232:0 233:0 234:0 235:0 236:0 237:0 238:0 239:0 240:4.5454998 241:0 242:4.5454998 243:0 244:0 245:0 246:0 247:0 248:0 249:0 250:0 251:4.5454998 252:0 253:0 254:0 255:0 256:0 257:0 258:0 259:0 260:0 261:4.5454998 262:0 263:0 264:0 265:0 266:0 267:0 268:0 269:0 270:0 271:0 272:0 273:0 274:0 275:0 276:0 277:0 278:4.5454998 279:4.5454998 280:0 281:0 282:0 283:0 284:0 285:0 286:0 287:0 288:0 289:0 290:0 291:0 292:0 293:0 294:0 295:0 296:0 297:0 298:0 299:0 300:0 301:0 302:0 303:0 304:0 305:4.5454998 306:0 307:4.5454998 308:0 309:0 310:0 311:0 312:0 313:0 314:0 315:0 316:4.5454998 317:0 318:0 319:0 320:0 321:4.5454998 322:0 323:0 324:0 325:0 326:0 327:0 328:0 329:0 330:0 331:0 332:0 333:0 334:0 335:0 336:0 337:0 338:0 339:0 340:0 341:-0.186 342:-0.22400001 343:-0.41600001 344:-0.11 345:-0.211 346:-0.65200001 347:-0.236 348:-0.62400001 349:-0.235 350:-1.026 351:-0.97799999 352:-1.12 353:-0.266 354:-0.47 355:-0.63300002 356:-0.093000002 #
200 1:20 2:16.6667 3:33.333302 4:30 5:6.8965998 6:3.4482999 7:0 8:10.3448 9:3.4482999 10:3.4482999 11:6.8965998 12:0 13:6.8965998 14:10.3448 15:10.3448 16:6.8965998 17:3.4482999 18:0 19:17.2414 20:10.3448 21:3.5713999 22:0 23:0 24:3.5713999 25:3.5713999 26:0 27:0 28:0 29:0 30:0 31:0 32:0 33:0 34:0 35:3.5713999 36:7.1429 37:3.5713999 38:0 39:0 40:0 41:0 42:0 43:3.5713999 44:0 45:7.1429 46:0 47:0 48:0 49:0 50:0 51:0 52:0 53:0 54:0 55:0 56:7.1429 57:0 58:3.5713999 59:3.5713999 60:0 61:0 62:7.1429 63:0 64:3.5713999 65:0 66:0 67:7.1429 68:0 69:0 70:3.5713999 71:0 72:0 73:0 74:0 75:0 76:0 77:0 78:3.5713999 79:10.7143 80:3.5713999 81:0 82:0 83:7.1429 84:3.5713999 85:0 86:0 87:0 88:3.7037001 89:0 90:0 91:0 92:0 93:0 94:0 95:0 96:0 97:0 98:0 99:3.7037001 100:0 101:3.7037001 102:0 103:0 104:0 105:0 106:0 107:0 108:0 109:0 110:0 111:0 112:0 113:0 114:0 115:0 116:0 117:0 118:0 119:0 120:0 121:0 122:0 123:0 124:0 125:0 126:0 127:0 128:0 129:0 130:0 131:0 132:0 133:0 134:0 135:0 136:0 137:0 138:0 139:0 140:0 141:0 142:0 143:3.7037001 144:0 145:0 146:0 147:3.7037001 148:3.7037001 149:3.7037001 150:0 151:0 152:0 153:0 154:0 155:0 156:0 157:0 158:0 159:0 160:0 161:0 162:0 163:0 164:0 165:0 166:0 167:0 168:0 169:0 170:0 171:0 172:0 173:3.7037001 174:0 175:0 176:0 177:0 178:0 179:0 180:0 181:0 182:0 183:0 184:7.4074001 185:0 186:0 187:0 188:0 189:0 190:0 191:0 192:0 193:0 194:0 195:0 196:0 197:0 198:0 199:0 200:0 201:0 202:0 203:0 204:0 205:0 206:0 207:0 208:0 209:0 210:0 211:0 212:0 213:0 214:0 215:0 216:0 217:0 218:0 219:0 220:0 221:0 222:0 223:0 224:0 225:0 226:0 227:0 228:7.4074001 229:0 230:0 231:0 232:0 233:0 234:0 235:3.7037001 236:0 237:3.7037001 238:0 239:0 240:0 241:0 242:0 243:0 244:0 245:0 246:0 247:0 248:0 249:0 250:0 251:3.7037001 252:0 253:0 254:0 255:0 256:0 257:0 258:0 259:3.7037001 260:0 261:0 262:0 263:0 264:0 265:0 266:0 267:0 268:0 269:0 270:3.7037001 271:3.7037001 272:0 273:0 274:0 275:0 276:0 277:0 278:0 279:0 280:0 281:3.7037001 282:0 283:0 284:0 285:0 286:0 287:0 288:0 289:0 290:0 291:0 292:0 293:0 294:0 295:0 296:0 297:0 298:0 299:0 300:0 301:0 302:0 303:0 304:0 305:0 306:0 307:0 308:0 309:0 310:0 311:0 312:0 313:0 314:3.7037001 315:0 316:0 317:0 318:7.4074001 319:0 320:3.7037001 321:0 322:0 323:3.7037001 324:0 325:0 326:0 327:0 328:0 329:0 330:0 331:0 332:0 333:0 334:0 335:3.7037001 336:3.7037001 337:0 338:0 339:3.7037001 340:0 341:-0.186 342:-0.22400001 343:0 344:-0.33000001 345:-0.211 346:-0.65200001 347:-0.472 348:0 349:-0.47 350:-1.368 351:-1.304 352:-0.67199999 353:-0.133 354:0 355:-1.0549999 356:-0.27900001 #
25.40319142740122515533585101366 1:13.7931 2:13.7931 3:27.586201 4:44.827599 5:3.5713999 6:0 7:3.5713999 8:7.1429 9:7.1429 10:0 11:0 12:3.5713999 13:3.5713999 14:3.5713999 15:7.1429 16:14.2857 17:0 18:10.7143 19:17.8571 20:17.8571 21:0 22:0 23:0 24:3.7037001 25:0 26:0 27:0 28:0 29:0 30:0 31:0 32:3.7037001 33:0 34:0 35:0 36:7.4074001 37:3.7037001 38:0 39:0 40:3.7037001 41:0 42:0 43:0 44:0 45:0 46:0 47:0 48:0 49:0 50:0 51:3.7037001 52:0 53:0 54:0 55:3.7037001 56:0 57:3.7037001 58:0 59:0 60:0 61:0 62:3.7037001 63:0 64:3.7037001 65:0 66:3.7037001 67:3.7037001 68:7.4074001 69:0 70:0 71:0 72:0 73:3.7037001 74:0 75:0 76:3.7037001 77:3.7037001 78:0 79:7.4074001 80:7.4074001 81:0 82:3.7037001 83:11.1111 84:3.7037001 85:0 86:0 87:0 88:0 89:0 90:0 91:0 92:0 93:0 94:0 95:0 96:0 97:0 98:0 99:0 100:3.8462 101:0 102:0 103:0 104:0 105:0 106:0 107:0 108:0 109:0 110:0 111:0 112:0 113:0 114:0 115:0 116:0 117:0 118:0 119:0 120:0 121:0 122:0 123:0 124:0 125:0 126:0 127:0 128:0 129:0 130:0 131:3.8462 132:0 133:0 134:0 135:0 136:0 137:0 138:0 139:0 140:0 141:0 142:0 143:0 144:0 145:0 146:3.8462 147:3.8462 148:0 149:0 150:0 151:0 152:3.8462 153:0 154:0 155:0 156:0 157:0 158:0 159:0 160:0 161:0 162:0 163:0 164:3.8462 165:0 166:0 167:0 168:0 169:0 170:0 171:0 172:0 173:0 174:0 175:0 176:0 177:0 178:0 179:0 180:0 181:0 182:0 183:0 184:0 185:0 186:0 187:0 188:0 189:0 190:0 191:0 192:0 193:0 194:0 195:0 196:0 197:0 198:0 199:0 200:0 201:0 202:0 203:0 204:0 205:0 206:0 207:3.8462 208:0 209:0 210:0 211:0 212:0 213:0 214:0 215:0 216:0 217:0 218:0 219:0 220:0 221:0 222:0 223:0 224:3.8462 225:0 226:0 227:0 228:0 229:0 230:0 231:0 232:3.8462 233:0 234:0 235:0 236:0 237:0 238:0 239:0 240:0 241:0 242:0 243:0 244:0 245:0 246:0 247:0 248:0 249:3.8462 250:0 251:0 252:0 253:0 254:0 255:0 256:0 257:0 258:0 259:0 260:3.8462 261:0 262:0 263:0 264:0 265:0 266:0 267:0 268:3.8462 269:0 270:0 271:0 272:3.8462 273:0 274:0 275:3.8462 276:3.8462 277:0 278:0 279:0 280:0 281:0 282:0 283:0 284:0 285:0 286:0 287:0 288:0 289:0 290:0 291:0 292:0 293:3.8462 294:0 295:0 296:0 297:0 298:0 299:0 300:0 301:0 302:0 303:0 304:0 305:0 306:0 307:3.8462 308:0 309:0 310:0 311:3.8462 312:0 313:0 314:0 315:0 316:0 317:0 318:3.8462 319:0 320:3.8462 321:0 322:3.8462 323:0 324:3.8462 325:0 326:0 327:0 328:0 329:0 330:0 331:0 332:0 333:3.8462 334:0 335:3.8462 336:3.8462 337:0 338:0 339:3.8462 340:0 341:-0.093000002 342:0 343:-0.208 344:-0.22 345:-0.42199999 346:0 347:0 348:-0.208 349:-0.235 350:-0.34200001 351:-0.65200001 352:-1.12 353:0 354:-0.70499998 355:-1.0549999 356:-0.465 #
200 1:24.137899 2:13.7931 3:27.586201 4:34.4828 5:7.1429 6:3.5713999 7:3.5713999 8:7.1429 9:7.1429 10:0 11:3.5713999 12:3.5713999 13:3.5713999 14:3.5713999 15:10.7143 16:10.7143 17:7.1429 18:7.1429 19:10.7143 20:10.7143 21:0 22:0 23:3.7037001 24:3.7037001 25:0 26:0 27:3.7037001 28:0 29:0 30:0 31:3.7037001 32:0 33:3.7037001 34:0 35:3.7037001 36:0 37:7.4074001 38:0 39:0 40:0 41:0 42:0 43:0 44:0 45:0 46:0 47:0 48:3.7037001 49:0 50:0 51:0 52:3.7037001 53:0 54:0 55:0 56:0 57:0 58:0 59:0 60:3.7037001 61:3.7037001 62:3.7037001 63:0 64:3.7037001 65:0 66:3.7037001 67:3.7037001 68:3.7037001 69:0 70:3.7037001 71:0 72:3.7037001 73:7.4074001 74:0 75:0 76:0 77:0 78:0 79:7.4074001 80:3.7037001 81:3.7037001 82:3.7037001 83:0 84:3.7037001 85:0 86:0 87:0 88:0 89:0 90:0 91:0 92:0 93:0 94:0 95:3.8462 96:0 97:0 98:0 99:3.8462 100:0 101:0 102:0 103:0 104:0 105:0 106:0 107:0 108:0 109:0 110:0 111:0 112:3.8462 113:0 114:0 115:0 116:0 117:0 118:0 119:0 120:0 121:0 122:0 123:0 124:0 125:3.8462 126:0 127:0 128:0 129:0 130:0 131:0 132:0 133:0 134:3.8462 135:0 136:0 137:0 138:0 139:0 140:0 141:0 142:0 143:0 144:3.8462 145:0 146:0 147:0 148:0 149:0 150:0 151:3.8462 152:3.8462 153:0 154:0 155:0 156:0 157:0 158:0 159:0 160:0 161:0 162:0 163:0 164:0 165:0 166:0 167:0 168:0 169:0 170:0 171:0 172:0 173:0 174:0 175:0 176:0 177:0 178:0 179:0 180:0 181:0 182:0 183:0 184:0 185:0 186:0 187:0 188:0 189:0 190:0 191:0 192:0 193:0 194:0 195:3.8462 196:0 197:0 198:0 199:0 200:0 201:0 202:0 203:0 204:0 205:0 206:0 207:0 208:0 209:0 210:3.8462 211:0 212:0 213:0 214:0 215:0 216:0 217:0 218:0 219:0 220:0 221:0 222:0 223:0 224:0 225:0 226:0 227:0 228:0 229:0 230:0 231:0 232:0 233:0 234:0 235:0 236:0 237:0 238:0 239:0 240:0 241:0 242:0 243:0 244:3.8462 245:0 246:0 247:0 248:0 249:0 250:0 251:0 252:3.8462 253:0 254:0 255:0 256:0 257:0 258:3.8462 259:0 260:0 261:0 262:0 263:0 264:0 265:3.8462 266:0 267:0 268:0 269:0 270:0 271:3.8462 272:0 273:0 274:0 275:0 276:3.8462 277:0 278:0 279:0 280:0 281:0 282:0 283:3.8462 284:0 285:0 286:0 287:0 288:0 289:3.8462 290:0 291:0 292:0 293:7.6922998 294:0 295:0 296:0 297:0 298:0 299:0 300:0 301:0 302:0 303:0 304:0 305:0 306:0 307:0 308:0 309:0 310:0 311:0 312:0 313:0 314:0 315:0 316:0 317:0 318:3.8462 319:0 320:3.8462 321:0 322:0 323:0 324:3.8462 325:0 326:0 327:0 328:3.8462 329:3.8462 330:0 331:0 332:0 333:0 334:0 335:0 336:0 337:3.8462 338:0 339:0 340:0 341:-0.186 342:-0.22400001 343:-0.208 344:-0.22 345:-0.42199999 346:-0.32600001 347:-0.236 348:-0.208 349:-0.235 350:-0.68400002 351:-1.304 352:-0.89600003 353:-0.266 354:-0.47 355:-0.63300002 356:-0.37200001 #
-200 1:16.129 2:6.4516001 3:48.3871 4:29.032301 5:0 6:0 7:13.3333 8:3.3333001 9:0 10:3.3333001 11:0 12:3.3333001 13:6.6666999 14:3.3333001 15:23.3333 16:16.6667 17:10 18:0 19:13.3333 20:3.3333001 21:0 22:0 23:0 24:0 25:0 26:0 27:0 28:0 29:3.4482999 30:0 31:6.8965998 32:3.4482999 33:3.4482999 34:0 35:0 36:0 37:0 38:0 39:0 40:0 41:0 42:0 43:0 44:3.4482999 45:0 46:0 47:0 48:0 49:0 50:0 51:0 52:3.4482999 53:0 54:0 55:6.8965998 56:0 57:0 58:3.4482999 59:0 60:0 61:3.4482999 62:3.4482999 63:10.3448 64:6.8965998 65:3.4482999 66:0 67:10.3448 68:0 69:0 70:0 71:6.8965998 72:3.4482999 73:0 74:0 75:0 76:0 77:0 78:0 79:6.8965998 80:6.8965998 81:0 82:0 83:3.4482999 84:0 85:0 86:0 87:0 88:0 89:0 90:0 91:0 92:0 93:0 94:0 95:0 96:0 97:0 98:0 99:0 100:0 101:0 102:0 103:0 104:0 105:0 106:0 107:0 108:0 109:0 110:0 111:0 112:0 113:0 114:0 115:0 116:0 117:0 118:0 119:3.5713999 120:0 121:0 122:0 123:0 124:0 125:0 126:3.5713999 127:3.5713999 128:0 129:0 130:0 131:3.5713999 132:0 133:0 134:0 135:3.5713999 136:0 137:0 138:0 139:0 140:0 141:0 142:0 143:0 144:0 145:0 146:0 147:0 148:0 149:0 150:0 151:0 152:0 153:0 154:0 155:0 156:0 157:0 158:0 159:0 160:0 161:0 162:0 163:0 164:0 165:0 166:0 167:0 168:0 169:0 170:0 171:0 172:0 173:0 174:0 175:0 176:0 177:0 178:0 179:0 180:3.5713999 181:0 182:0 183:0 184:0 185:0 186:0 187:0 188:0 189:0 190:0 191:0 192:0 193:0 194:0 195:0 196:0 197:0 198:0 199:0 200:0 201:0 202:0 203:0 204:0 205:0 206:0 207:0 208:0 209:0 210:0 211:3.5713999 212:0 213:0 214:0 215:0 216:0 217:0 218:0 219:0 220:0 221:3.5713999 222:0 223:3.5713999 224:0 225:0 226:0 227:0 228:0 229:0 230:0 231:0 232:0 233:0 234:0 235:0 236:3.5713999 237:0 238:0 239:0 240:0 241:0 242:0 243:0 244:0 245:0 246:0 247:3.5713999 248:0 249:0 250:3.5713999 251:0 252:0 253:3.5713999 254:0 255:3.5713999 256:3.5713999 257:3.5713999 258:0 259:3.5713999 260:0 261:0 262:0 263:0 264:3.5713999 265:0 266:0 267:0 268:0 269:0 270:0 271:7.1429 272:3.5713999 273:0 274:0 275:0 276:0 277:0 278:0 279:0 280:0 281:0 282:0 283:0 284:0 285:0 286:0 287:3.5713999 288:3.5713999 289:3.5713999 290:0 291:0 292:0 293:0 294:0 295:0 296:0 297:0 298:0 299:0 300:0 301:0 302:0 303:0 304:0 305:0 306:0 307:0 308:0 309:0 310:0 311:0 312:0 313:0 314:0 315:0 316:0 317:0 318:0 319:3.5713999 320:3.5713999 321:0 322:0 323:3.5713999 324:0 325:0 326:0 327:0 328:0 329:0 330:0 331:0 332:0 333:0 334:0 335:0 336:3.5713999 337:0 338:0 339:0 340:0 341:0 342:0 343:-0.83200002 344:-0.11 345:0 346:-0.32600001 347:0 348:-0.208 349:-0.47 350:-0.34200001 351:-2.2820001 352:-1.344 353:-0.39899999 354:0 355:-0.84399998 356:-0.27900001 #
-200 1:20 2:13.3333 3:50 4:16.6667 5:3.4482999 6:3.4482999 7:13.7931 8:0 9:3.4482999 10:0 11:6.8965998 12:3.4482999 13:13.7931 14:6.8965998 15:17.2414 16:10.3448 17:0 18:3.4482999 19:13.7931 20:0 21:0 22:0 23:3.5713999 24:0 25:0 26:0 27:3.5713999 28:0 29:7.1429 30:3.5713999 31:3.5713999 32:0 33:0 34:0 35:0 36:0 37:0 38:3.5713999 39:0 40:0 41:0 42:0 43:0 44:0 45:0 46:0 47:3.5713999 48:0 49:0 50:0 51:3.5713999 52:0 53:3.5713999 54:0 55:10.7143 56:0 57:3.5713999 58:0 59:0 60:3.5713999 61:3.5713999 62:3.5713999 63:3.5713999 64:7.1429 65:0 66:3.5713999 67:7.1429 68:0 69:0 70:0 71:0 72:0 73:0 74:0 75:3.5713999 76:0 77:3.5713999 78:0 79:7.1429 80:3.5713999 81:0 82:0 83:0 84:0 85:0 86:0 87:0 88:0 89:0 90:0 91:0 92:0 93:0 94:3.7037001 95:0 96:0 97:0 98:0 99:0 100:0 101:0 102:0 103:0 104:0 105:0 106:0 107:0 108:0 109:0 110:0 111:0 112:0 113:0 114:0 115:0 116:0 117:3.7037001 118:0 119:3.7037001 120:0 121:3.7037001 122:0 123:0 124:0 125:0 126:0 127:3.7037001 128:0 129:0 130:0 131:0 132:0 133:0 134:0 135:0 136:0 137:0 138:0 139:0 140:0 141:0 142:0 143:0 144:0 145:0 146:0 147:0 148:0 149:0 150:0 151:0 152:0 153:0 154:0 155:3.7037001 156:0 157:0 158:0 159:0 160:0 161:0 162:0 163:0 164:0 165:0 166:0 167:0 168:0 169:0 170:0 171:0 172:0 173:0 174:0 175:0 176:0 177:0 178:0 179:0 180:0 181:0 182:0 183:0 184:0 185:0 186:0 187:0 188:0 189:3.7037001 190:0 191:0 192:0 193:0 194:0 195:0 196:0 197:0 198:0 199:0 200:0 201:0 202:0 203:0 204:0 205:3.7037001 206:0 207:0 208:0 209:0 210:0 211:0 212:0 213:0 214:0 215:3.7037001 216:0 217:0 218:0 219:0 220:0 221:7.4074001 222:0 223:3.7037001 224:0 225:0 226:0 227:0 228:0 229:0 230:3.7037001 231:0 232:0 233:0 234:0 235:0 236:0 237:0 238:0 239:0 240:0 241:0 242:0 243:3.7037001 244:0 245:0 246:0 247:3.7037001 248:0 249:0 250:0 251:0 252:3.7037001 253:0 254:0 255:0 256:3.7037001 257:0 258:3.7037001 259:3.7037001 260:0 261:0 262:0 263:0 264:0 265:0 266:0 267:3.7037001 268:0 269:0 270:0 271:3.7037001 272:3.7037001 273:0 274:0 275:0 276:0 277:0 278:0 279:0 280:0 281:0 282:0 283:0 284:0 285:0 286:0 287:0 288:0 289:0 290:0 291:0 292:0 293:0 294:0 295:0 296:0 297:0 298:0 299:0 300:0 301:0 302:0 303:3.7037001 304:0 305:0 306:0 307:0 308:0 309:0 310:0 311:3.7037001 312:0 313:0 314:0 315:0 316:0 317:0 318:3.7037001 319:0 320:3.7037001 321:0 322:0 323:3.7037001 324:0 325:0 326:0 327:0 328:0 329:0 330:0 331:0 332:0 333:0 334:0 335:0 336:0 337:0 338:0 339:0 340:0 341:-0.093000002 342:-0.22400001 343:-0.83200002 344:0 345:-0.211 346:0 347:-0.472 348:-0.208 349:-0.94 350:-0.68400002 351:-1.956 352:-0.89600003 353:0 354:-0.235 355:-0.84399998 356:-0.186 #
-200 1:7.1429 2:7.1429 3:32.142899 4:53.5714 5:0 6:3.7037001 7:0 8:3.7037001 9:0 10:0 11:0 12:7.4074001 13:3.7037001 14:0 15:3.7037001 16:22.2222 17:3.7037001 18:3.7037001 19:29.629601 20:18.518499 21:0 22:0 23:0 24:0 25:0 26:0 27:0 28:3.8462 29:0 30:0 31:0 32:0 33:0 34:0 35:0 36:3.8462 37:0 38:0 39:0 40:0 41:0 42:0 43:0 44:0 45:0 46:0 47:0 48:0 49:0 50:0 51:3.8462 52:3.8462 53:0 54:0 55:0 56:3.8462 57:0 58:0 59:0 60:0 61:0 62:0 63:0 64:3.8462 65:0 66:0 67:19.230801 68:3.8462 69:0 70:3.8462 71:0 72:0 73:0 74:0 75:0 76:3.8462 77:3.8462 78:0 79:3.8462 80:19.230801 81:3.8462 82:3.8462 83:3.8462 84:7.6922998 85:0 86:0 87:0 88:0 89:0 90:0 91:0 92:0 93:0 94:0 95:0 96:0 97:0 98:0 99:0 100:0 101:0 102:0 103:0 104:0 105:0 106:0 107:0 108:0 109:0 110:0 111:0 112:0 113:0 114:0 115:0 116:4 117:0 118:0 119:0 120:0 121:0 122:0 123:0 124:0 125:0 126:0 127:0 128:0 129:0 130:0 131:0 132:0 133:0 134:0 135:0 136:0 137:0 138:0 139:0 140:0 141:0 142:0 143:0 144:0 145:0 146:0 147:0 148:4 149:0 150:0 151:0 152:0 153:0 154:0 155:0 156:0 157:0 158:0 159:0 160:0 161:0 162:0 163:0 164:0 165:0 166:0 167:0 168:0 169:0 170:0 171:0 172:0 173:0 174:0 175:0 176:0 177:0 178:0 179:0 180:0 181:0 182:0 183:0 184:0 185:0 186:0 187:0 188:0 189:0 190:0 191:0 192:0 193:0 194:0 195:0 196:0 197:0 198:0 199:0 200:0 201:0 202:0 203:0 204:0 205:0 206:0 207:0 208:4 209:0 210:0 211:4 212:0 213:0 214:0 215:0 216:0 217:0 218:0 219:0 220:0 221:0 222:0 223:0 224:0 225:0 226:0 227:0 228:4 229:0 230:0 231:0 232:0 233:0 234:0 235:0 236:0 237:0 238:0 239:0 240:0 241:0 242:0 243:0 244:0 245:0 246:0 247:0 248:0 249:0 250:0 251:0 252:0 253:0 254:0 255:0 256:0 257:0 258:0 259:4 260:0 261:0 262:0 263:0 264:0 265:0 266:0 267:0 268:0 269:0 270:0 271:4 272:12 273:0 274:0 275:0 276:4 277:0 278:0 279:0 280:0 281:0 282:0 283:0 284:4 285:0 286:0 287:0 288:0 289:0 290:0 291:0 292:0 293:0 294:0 295:0 296:0 297:0 298:0 299:0 300:0 301:0 302:0 303:0 304:0 305:0 306:0 307:4 308:0 309:0 310:0 311:0 312:4 313:0 314:0 315:0 316:0 317:0 318:0 319:0 320:4 321:0 322:0 323:16 324:4 325:0 326:4 327:0 328:0 329:0 330:0 331:0 332:4 333:0 334:0 335:0 336:4 337:4 338:4 339:0 340:0 341:0 342:-0.22400001 343:0 344:-0.11 345:0 346:0 347:0 348:-0.41600001 349:-0.235 350:0 351:-0.97799999 352:-1.568 353:-0.133 354:-0.235 355:-1.899 356:-0.65100002 #
92.254766263522469671443104743958 1:31.0345 2:24.137899 3:3.4482999 4:41.379299 5:17.8571 6:7.1429 7:0 8:7.1429 9:7.1429 10:7.1429 11:0 12:7.1429 13:0 14:3.5713999 15:0 16:0 17:7.1429 18:7.1429 19:3.5713999 20:25 21:11.1111 22:7.4074001 23:0 24:0 25:0 26:3.7037001 27:0 28:0 29:0 30:0 31:0 32:0 33:0 34:0 35:0 36:7.4074001 37:3.7037001 38:0 39:0 40:3.7037001 41:3.7037001 42:0 43:0 44:3.7037001 45:0 46:0 47:0 48:0 49:0 50:0 51:0 52:7.4074001 53:0 54:0 55:0 56:0 57:0 58:3.7037001 59:0 60:0 61:0 62:0 63:0 64:0 65:0 66:0 67:0 68:0 69:3.7037001 70:0 71:0 72:3.7037001 73:3.7037001 74:0 75:0 76:3.7037001 77:0 78:3.7037001 79:0 80:0 81:7.4074001 82:3.7037001 83:3.7037001 84:11.1111 85:3.8462 86:7.6922998 87:0 88:0 89:0 90:3.8462 91:0 92:0 93:0 94:0 95:0 96:0 97:0 98:0 99:0 100:0 101:0 102:0 103:0 104:0 105:3.8462 106:0 107:0 108:0 109:0 110:0 111:0 112:0 113:0 114:0 115:0 116:0 117:0 118:0 119:0 120:0 121:0 122:0 123:0 124:0 125:0 126:0 127:0 128:0 129:0 130:0 131:0 132:0 133:0 134:0 135:0 136:0 137:0 138:0 139:0 140:0 141:0 142:0 143:0 144:0 145:0 146:0 147:0 148:7.6922998 149:3.8462 150:0 151:0 152:0 153:0 154:0 155:0 156:0 157:0 158:0 159:0 160:0 161:0 162:0 163:0 164:3.8462 165:3.8462 166:0 167:0 168:0 169:0 170:0 171:0 172:0 173:0 174:0 175:0 176:0 177:0 178:0 179:0 180:3.8462 181:0 182:0 183:0 184:0 185:0 186:0 187:0 188:0 189:0 190:0 191:0 192:0 193:0 194:0 195:0 196:0 197:0 198:0 199:0 200:0 201:0 202:0 203:0 204:0 205:0 206:0 207:0 208:0 209:0 210:0 211:3.8462 212:3.8462 213:0 214:0 215:0 216:0 217:0 218:0 219:0 220:0 221:0 222:0 223:0 224:0 225:0 226:0 227:0 228:0 229:0 230:0 231:0 232:0 233:0 234:0 235:0 236:3.8462 237:0 238:0 239:0 240:0 241:0 242:0 243:0 244:0 245:0 246:0 247:0 248:0 249:0 250:0 251:0 252:0 253:0 254:0 255:0 256:0 257:0 258:0 259:0 260:0 261:0 262:0 263:0 264:0 265:0 266:0 267:0 268:0 269:0 270:0 271:0 272:0 273:0 274:0 275:0 276:0 277:3.8462 278:0 279:0 280:0 281:0 282:0 283:0 284:0 285:0 286:0 287:0 288:0 289:0 290:0 291:0 292:3.8462 293:0 294:0 295:0 296:3.8462 297:0 298:0 299:0 300:0 301:0 302:0 303:0 304:0 305:0 306:0 307:0 308:3.8462 309:0 310:0 311:0 312:0 313:0 314:3.8462 315:0 316:0 317:0 318:0 319:0 320:0 321:0 322:0 323:0 324:0 325:3.8462 326:0 327:0 328:3.8462 329:0 330:0 331:0 332:3.8462 333:0 334:3.8462 335:0 336:0 337:7.6922998 338:3.8462 339:0 340:0 341:-0.465 342:-0.44800001 343:0 344:-0.22 345:-0.42199999 346:-0.97799999 347:0 348:-0.41600001 349:0 350:-0.68400002 351:-0.32600001 352:-0.22400001 353:-0.266 354:-0.47 355:-0.211 356:-0.74400002 #
-200 1:26.6667 2:16.6667 3:26.6667 4:30 5:6.8965998 6:3.4482999 7:10.3448 8:6.8965998 9:3.4482999 10:0 11:3.4482999 12:6.8965998 13:6.8965998 14:6.8965998 15:3.4482999 16:10.3448 17:10.3448 18:6.8965998 19:10.3448 20:3.4482999 21:3.5713999 22:0 23:3.5713999 24:0 25:0 26:0 27:3.5713999 28:0 29:0 30:3.5713999 31:3.5713999 32:3.5713999 33:0 34:3.5713999 35:3.5713999 36:0 37:3.5713999 38:0 39:0 40:0 41:0 42:0 43:0 44:0 45:0 46:3.5713999 47:0 48:0 49:3.5713999 50:0 51:3.5713999 52:0 53:0 54:0 55:3.5713999 56:3.5713999 57:3.5713999 58:0 59:0 60:0 61:3.5713999 62:0 63:0 64:0 65:7.1429 66:0 67:0 68:3.5713999 69:0 70:3.5713999 71:3.5713999 72:3.5713999 73:0 74:0 75:0 76:7.1429 77:3.5713999 78:0 79:0 80:7.1429 81:0 82:3.5713999 83:0 84:0 85:0 86:0 87:3.7037001 88:0 89:0 90:0 91:0 92:0 93:0 94:3.7037001 95:0 96:0 97:0 98:0 99:0 100:0 101:0 102:0 103:0 104:0 105:0 106:0 107:0 108:0 109:0 110:3.7037001 111:0 112:0 113:0 114:0 115:0 116:0 117:0 118:0 119:0 120:0 121:0 122:0 123:0 124:0 125:3.7037001 126:0 127:0 128:0 129:3.7037001 130:0 131:0 132:0 133:0 134:0 135:0 136:0 137:0 138:0 139:0 140:3.7037001 141:0 142:0 143:0 144:3.7037001 145:0 146:0 147:0 148:0 149:3.7037001 150:0 151:0 152:0 153:0 154:0 155:0 156:0 157:0 158:0 159:0 160:0 161:0 162:0 163:0 164:0 165:0 166:0 167:0 168:0 169:0 170:0 171:0 172:0 173:0 174:0 175:0 176:0 177:0 178:0 179:0 180:0 181:0 182:0 183:0 184:0 185:3.7037001 186:0 187:0 188:0 189:0 190:0 191:0 192:0 193:0 194:0 195:0 196:0 197:0 198:3.7037001 199:0 200:0 201:0 202:0 203:0 204:0 205:0 206:0 207:0 208:3.7037001 209:0 210:0 211:0 212:0 213:0 214:0 215:0 216:0 217:0 218:0 219:0 220:0 221:0 222:0 223:3.7037001 224:0 225:0 226:0 227:3.7037001 228:0 229:3.7037001 230:0 231:0 232:0 233:0 234:0 235:0 236:0 237:0 238:0 239:0 240:0 241:0 242:0 243:0 244:0 245:0 246:0 247:0 248:3.7037001 249:0 250:0 251:0 252:0 253:0 254:0 255:0 256:0 257:0 258:0 259:0 260:0 261:0 262:0 263:3.7037001 264:3.7037001 265:0 266:0 267:0 268:0 269:0 270:0 271:0 272:0 273:0 274:3.7037001 275:0 276:0 277:0 278:0 279:0 280:0 281:0 282:0 283:3.7037001 284:0 285:0 286:0 287:0 288:3.7037001 289:0 290:3.7037001 291:0 292:0 293:0 294:0 295:0 296:0 297:0 298:0 299:0 300:0 301:0 302:0 303:0 304:0 305:3.7037001 306:0 307:3.7037001 308:0 309:0 310:0 311:3.7037001 312:0 313:0 314:0 315:0 316:0 317:0 318:0 319:0 320:0 321:3.7037001 322:0 323:0 324:3.7037001 325:0 326:0 327:0 328:0 329:0 330:0 331:0 332:3.7037001 333:0 334:0 335:0 336:0 337:0 338:0 339:0 340:0 341:-0.186 342:-0.22400001 343:-0.62400001 344:-0.22 345:-0.211 346:0 347:-0.236 348:-0.41600001 349:-0.47 350:-0.68400002 351:-0.65200001 352:-0.89600003 353:-0.39899999 354:-0.47 355:-0.63300002 356:-0.27900001 #
-84.598416159318645668463432230055 1:17.2414 2:17.2414 3:24.137899 4:41.379299 5:0 6:0 7:7.1429 8:7.1429 9:0 10:7.1429 11:0 12:10.7143 13:7.1429 14:3.5713999 15:7.1429 16:7.1429 17:10.7143 18:7.1429 19:7.1429 20:17.8571 21:0 22:0 23:0 24:0 25:0 26:0 27:0 28:0 29:0 30:0 31:3.7037001 32:3.7037001 33:3.7037001 34:0 35:0 36:3.7037001 37:0 38:0 39:0 40:0 41:0 42:0 43:0 44:7.4074001 45:0 46:0 47:0 48:0 49:0 50:0 51:3.7037001 52:7.4074001 53:0 54:0 55:3.7037001 56:3.7037001 57:0 58:3.7037001 59:0 60:0 61:3.7037001 62:0 63:0 64:3.7037001 65:0 66:3.7037001 67:0 68:3.7037001 69:0 70:0 71:3.7037001 72:3.7037001 73:0 74:3.7037001 75:0 76:3.7037001 77:3.7037001 78:0 79:3.7037001 80:0 81:7.4074001 82:3.7037001 83:3.7037001 84:3.7037001 85:0 86:0 87:0 88:0 89:0 90:0 91:0 92:0 93:0 94:0 95:0 96:0 97:0 98:0 99:0 100:0 101:0 102:0 103:0 104:0 105:0 106:0 107:0 108:0 109:0 110:0 111:0 112:0 113:0 114:0 115:0 116:0 117:0 118:0 119:0 120:0 121:0 122:0 123:0 124:0 125:3.8462 126:0 127:0 128:0 129:0 130:3.8462 131:0 132:0 133:0 134:0 135:0 136:0 137:0 138:0 139:0 140:0 141:0 142:0 143:0 144:0 145:0 146:0 147:0 148:3.8462 149:0 150:0 151:0 152:0 153:0 154:0 155:0 156:0 157:0 158:0 159:0 160:0 161:0 162:0 163:0 164:0 165:0 166:0 167:0 168:0 169:0 170:0 171:0 172:0 173:0 174:0 175:0 176:0 177:0 178:0 179:3.8462 180:3.8462 181:0 182:0 183:0 184:0 185:0 186:0 187:0 188:0 189:0 190:0 191:0 192:0 193:0 194:0 195:0 196:0 197:0 198:0 199:0 200:0 201:0 202:0 203:0 204:0 205:3.8462 206:0 207:0 208:0 209:3.8462 210:0 211:3.8462 212:0 213:0 214:0 215:0 216:0 217:0 218:0 219:0 220:0 221:0 222:0 223:3.8462 224:0 225:0 226:0 227:0 228:3.8462 229:0 230:0 231:0 232:0 233:0 234:0 235:0 236:3.8462 237:0 238:0 239:0 240:0 241:0 242:0 243:0 244:0 245:0 246:0 247:0 248:3.8462 249:0 250:0 251:0 252:0 253:0 254:0 255:0 256:0 257:0 258:0 259:0 260:3.8462 261:0 262:0 263:0 264:0 265:0 266:3.8462 267:0 268:0 269:0 270:0 271:0 272:0 273:3.8462 274:0 275:0 276:0 277:0 278:0 279:0 280:0 281:0 282:0 283:0 284:0 285:0 286:0 287:0 288:3.8462 289:3.8462 290:0 291:0 292:0 293:0 294:0 295:0 296:0 297:0 298:0 299:0 300:3.8462 301:0 302:0 303:0 304:0 305:0 306:0 307:0 308:3.8462 309:0 310:0 311:3.8462 312:0 313:0 314:0 315:0 316:0 317:0 318:0 319:0 320:3.8462 321:0 322:0 323:0 324:0 325:0 326:0 327:3.8462 328:3.8462 329:0 330:0 331:0 332:3.8462 333:0 334:0 335:3.8462 336:0 337:0 338:3.8462 339:0 340:0 341:0 342:0 343:-0.41600001 344:-0.22 345:0 346:-0.65200001 347:0 348:-0.62400001 349:-0.47 350:-0.34200001 351:-1.304 352:-0.67199999 353:-0.39899999 354:-0.47 355:-0.42199999 356:-0.65100002 #
200 1:23.3333 2:20 3:30 4:26.6667 5:6.8965998 6:3.4482999 7:6.8965998 8:6.8965998 9:6.8965998 10:3.4482999 11:3.4482999 12:6.8965998 13:3.4482999 14:13.7931 15:6.8965998 16:3.4482999 17:6.8965998 18:0 19:13.7931 20:6.8965998 21:0 22:0 23:3.5713999 24:3.5713999 25:0 26:0 27:3.5713999 28:0 29:0 30:3.5713999 31:0 32:0 33:0 34:0 35:3.5713999 36:3.5713999 37:3.5713999 38:0 39:0 40:3.5713999 41:0 42:0 43:0 44:3.5713999 45:0 46:0 47:3.5713999 48:0 49:3.5713999 50:0 51:3.5713999 52:0 53:0 54:0 55:3.5713999 56:0 57:7.1429 58:3.5713999 59:0 60:3.5713999 61:0 62:3.5713999 63:3.5713999 64:0 65:3.5713999 66:0 67:0 68:0 69:3.5713999 70:3.5713999 71:0 72:0 73:0 74:0 75:0 76:0 77:3.5713999 78:7.1429 79:0 80:3.5713999 81:0 82:0 83:3.5713999 84:3.5713999 85:0 86:0 87:0 88:0 89:0 90:0 91:0 92:0 93:0 94:3.7037001 95:0 96:0 97:0 98:0 99:3.7037001 100:0 101:0 102:0 103:0 104:0 105:0 106:0 107:0 108:0 109:0 110:0 111:3.7037001 112:0 113:0 114:0 115:0 116:0 117:0 118:0 119:0 120:0 121:0 122:3.7037001 123:0 124:0 125:0 126:0 127:0 128:0 129:0 130:0 131:0 132:0 133:0 134:0 135:0 136:0 137:0 138:0 139:0 140:0 141:3.7037001 142:0 143:0 144:0 145:0 146:0 147:0 148:3.7037001 149:0 150:0 151:3.7037001 152:0 153:0 154:0 155:0 156:0 157:0 158:0 159:0 160:0 161:0 162:0 163:0 164:3.7037001 165:0 166:0 167:0 168:0 169:0 170:0 171:0 172:0 173:0 174:0 175:0 176:0 177:0 178:0 179:3.7037001 180:0 181:0 182:0 183:0 184:0 185:0 186:0 187:0 188:0 189:0 190:0 191:3.7037001 192:0 193:0 194:0 195:0 196:0 197:0 198:3.7037001 199:0 200:0 201:0 202:0 203:0 204:0 205:0 206:3.7037001 207:0 208:0 209:0 210:0 211:0 212:0 213:0 214:0 215:0 216:0 217:0 218:0 219:0 220:0 221:0 222:0 223:0 224:0 225:0 226:0 227:0 228:0 229:3.7037001 230:0 231:0 232:3.7037001 233:0 234:0 235:0 236:3.7037001 237:0 238:0 239:0 240:0 241:3.7037001 242:0 243:0 244:0 245:0 246:0 247:0 248:0 249:3.7037001 250:0 251:0 252:0 253:0 254:3.7037001 255:0 256:0 257:0 258:0 259:0 260:0 261:3.7037001 262:0 263:0 264:0 265:0 266:0 267:0 268:0 269:0 270:0 271:0 272:0 273:0 274:0 275:0 276:0 277:0 278:0 279:0 280:3.7037001 281:0 282:0 283:3.7037001 284:0 285:0 286:0 287:0 288:0 289:0 290:0 291:0 292:0 293:0 294:0 295:0 296:0 297:0 298:0 299:0 300:0 301:0 302:0 303:0 304:0 305:0 306:0 307:0 308:0 309:0 310:0 311:3.7037001 312:0 313:3.7037001 314:0 315:0 316:3.7037001 317:0 318:0 319:0 320:0 321:3.7037001 322:0 323:0 324:0 325:0 326:0 327:0 328:0 329:0 330:0 331:0 332:0 333:0 334:0 335:0 336:3.7037001 337:0 338:0 339:3.7037001 340:0 341:-0.186 342:-0.22400001 343:-0.41600001 344:-0.22 345:-0.42199999 346:-0.65200001 347:-0.236 348:-0.41600001 349:-0.235 350:-1.71 351:-0.97799999 352:-0.44800001 353:-0.266 354:0 355:-0.84399998 356:-0.186 #
-200 1:34.615398 2:34.615398 3:11.5385 4:19.230801 5:16 6:4 7:8 8:8 9:16 10:12 11:4 12:4 13:4 14:0 15:0 16:4 17:0 18:20 19:0 20:0 21:4.1666999 22:0 23:8.3332996 24:4.1666999 25:4.1666999 26:0 27:0 28:0 29:4.1666999 30:0 31:0 32:4.1666999 33:0 34:8.3332996 35:0 36:0 37:12.5 38:4.1666999 39:0 40:0 41:4.1666999 42:4.1666999 43:4.1666999 44:0 45:0 46:0 47:0 48:0 49:0 50:4.1666999 51:0 52:0 53:0 54:0 55:0 56:4.1666999 57:0 58:0 59:0 60:0 61:0 62:0 63:0 64:0 65:0 66:4.1666999 67:0 68:0 69:0 70:0 71:0 72:0 73:8.3332996 74:8.3332996 75:0 76:4.1666999 77:0 78:0 79:0 80:0 81:0 82:0 83:0 84:0 85:0 86:0 87:0 88:4.3477998 89:0 90:0 91:0 92:0 93:4.3477998 94:0 95:0 96:4.3477998 97:0 98:4.3477998 99:0 100:0 101:4.3477998 102:0 103:0 104:0 105:0 106:0 107:0 108:0 109:0 110:0 111:0 112:0 113:0 114:0 115:0 116:0 117:0 118:0 119:0 120:4.3477998 121:0 122:0 123:0 124:0 125:0 126:0 127:0 128:0 129:0 130:4.3477998 131:0 132:0 133:0 134:0 135:0 136:0 137:4.3477998 138:0 139:0 140:4.3477998 141:0 142:0 143:0 144:0 145:0 146:0 147:0 148:0 149:4.3477998 150:0 151:8.6956997 152:0 153:4.3477998 154:0 155:0 156:0 157:0 158:0 159:0 160:0 161:0 162:0 163:0 164:0 165:0 166:4.3477998 167:0 168:0 169:4.3477998 170:0 171:0 172:0 173:0 174:0 175:0 176:0 177:0 178:0 179:0 180:0 181:0 182:0 183:0 184:0 185:0 186:0 187:0 188:0 189:0 190:0 191:0 192:0 193:0 194:0 195:0 196:0 197:0 198:0 199:0 200:0 201:0 202:4.3477998 203:0 204:0 205:0 206:0 207:0 208:0 209:0 210:0 211:0 212:0 213:0 214:0 215:0 216:0 217:0 218:0 219:0 220:0 221:0 222:0 223:0 224:0 225:0 226:4.3477998 227:0 228:0 229:0 230:0 231:0 232:0 233:0 234:0 235:0 236:0 237:0 238:0 239:0 240:0 241:0 242:0 243:0 244:0 245:0 246:0 247:0 248:0 249:0 250:0 251:0 252:0 253:0 254:0 255:0 256:0 257:0 258:0 259:0 260:0 261:0 262:0 263:0 264:0 265:4.3477998 266:0 267:0 268:0 269:0 270:0 271:0 272:0 273:0 274:0 275:0 276:0 277:0 278:0 279:0 280:0 281:0 282:0 283:0 284:0 285:0 286:0 287:0 288:0 289:0 290:0 291:0 292:0 293:8.6956997 294:0 295:0 296:0 297:0 298:4.3477998 299:4.3477998 300:0 301:0 302:0 303:0 304:0 305:0 306:4.3477998 307:0 308:0 309:0 310:0 311:0 312:0 313:0 314:0 315:0 316:0 317:0 318:0 319:0 320:0 321:0 322:0 323:0 324:0 325:0 326:0 327:0 328:0 329:0 330:0 331:0 332:0 333:0 334:0 335:0 336:0 337:0 338:0 339:0 340:0 341:-0.465 342:-0.22400001 343:-0.41600001 344:-0.33000001 345:-0.84399998 346:-0.97799999 347:-0.236 348:-0.208 349:-0.235 350:0 351:-0.65200001 352:-0.44800001 353:0 354:-1.175 355:-0.211 356:-0.186 #
-200 1:32.142899 2:10.7143 3:25 4:32.142899 5:7.4074001 6:7.4074001 7:7.4074001 8:11.1111 9:3.7037001 10:0 11:0 12:7.4074001 13:7.4074001 14:0 15:7.4074001 16:7.4074001 17:11.1111 18:3.7037001 19:11.1111 20:7.4074001 21:3.8462 22:0 23:0 24:3.8462 25:3.8462 26:0 27:0 28:3.8462 29:0 30:0 31:0 32:3.8462 33:3.8462 34:0 35:0 36:7.6922998 37:0 38:3.8462 39:0 40:0 41:0 42:0 43:0 44:0 45:0 46:0 47:0 48:0 49:0 50:0 51:7.6922998 52:0 53:0 54:3.8462 55:3.8462 56:0 57:0 58:0 59:0 60:0 61:3.8462 62:0 63:3.8462 64:0 65:7.6922998 66:0 67:0 68:0 69:3.8462 70:0 71:3.8462 72:3.8462 73:0 74:0 75:0 76:3.8462 77:3.8462 78:0 79:3.8462 80:3.8462 81:0 82:3.8462 83:3.8462 84:0 85:0 86:0 87:0 88:4 89:0 90:0 91:0 92:0 93:0 94:0 95:0 96:0 97:0 98:0 99:0 100:4 101:0 102:4 103:0 104:0 105:0 106:0 107:0 108:0 109:0 110:0 111:0 112:0 113:0 114:0 115:4 116:0 117:0 118:0 119:0 120:0 121:0 122:0 123:0 124:0 125:0 126:0 127:0 128:0 129:4 130:0 131:0 132:0 133:4 134:0 135:0 136:0 137:0 138:0 139:0 140:0 141:0 142:0 143:0 144:0 145:0 146:4 147:4 148:0 149:0 150:0 151:0 152:0 153:0 154:0 155:0 156:4 157:0 158:0 159:0 160:0 161:0 162:0 163:0 164:0 165:0 166:0 167:0 168:0 169:0 170:0 171:0 172:0 173:0 174:0 175:0 176:0 177:0 178:0 179:0 180:0 181:0 182:0 183:0 184:0 185:0 186:0 187:0 188:0 189:0 190:0 191:0 192:0 193:0 194:0 195:0 196:0 197:0 198:0 199:0 200:0 201:0 202:0 203:0 204:0 205:4 206:0 207:0 208:4 209:0 210:0 211:0 212:0 213:0 214:0 215:0 216:0 217:4 218:0 219:0 220:0 221:0 222:0 223:0 224:4 225:0 226:0 227:0 228:0 229:0 230:0 231:0 232:0 233:0 234:0 235:0 236:0 237:0 238:0 239:0 240:0 241:0 242:0 243:0 244:0 245:0 246:4 247:0 248:0 249:0 250:0 251:0 252:0 253:4 254:0 255:0 256:0 257:0 258:0 259:0 260:0 261:0 262:0 263:4 264:4 265:0 266:0 267:0 268:0 269:0 270:0 271:0 272:0 273:0 274:0 275:0 276:0 277:4 278:0 279:0 280:0 281:0 282:0 283:0 284:0 285:0 286:0 287:0 288:0 289:4 290:0 291:0 292:0 293:0 294:0 295:0 296:0 297:0 298:0 299:0 300:0 301:0 302:0 303:0 304:0 305:0 306:0 307:4 308:0 309:0 310:0 311:4 312:0 313:0 314:0 315:0 316:0 317:0 318:0 319:4 320:0 321:4 322:0 323:0 324:0 325:0 326:0 327:0 328:0 329:0 330:0 331:0 332:4 333:0 334:0 335:4 336:0 337:0 338:0 339:0 340:0 341:-0.186 342:-0.44800001 343:-0.41600001 344:-0.33000001 345:-0.211 346:0 347:0 348:-0.41600001 349:-0.47 350:0 351:-1.304 352:-0.67199999 353:-0.39899999 354:-0.235 355:-0.84399998 356:-0.37200001 #
-200 1:20.689699 2:27.586201 3:27.586201 4:24.137899 5:0 6:3.5713999 7:14.2857 8:3.5713999 9:10.7143 10:3.5713999 11:7.1429 12:7.1429 13:7.1429 14:7.1429 15:7.1429 16:3.5713999 17:3.5713999 18:14.2857 19:0 20:7.1429 21:0 22:0 23:0 24:0 25:0 26:3.7037001 27:0 28:0 29:3.7037001 30:3.7037001 31:7.4074001 32:0 33:3.7037001 34:0 35:0 36:0 37:0 38:0 39:7.4074001 40:3.7037001 41:0 42:0 43:0 44:3.7037001 45:0 46:3.7037001 47:0 48:3.7037001 49:0 50:3.7037001 51:0 52:3.7037001 53:0 54:0 55:7.4074001 56:0 57:3.7037001 58:0 59:0 60:3.7037001 61:3.7037001 62:0 63:0 64:0 65:0 66:3.7037001 67:0 68:0 69:0 70:3.7037001 71:0 72:0 73:7.4074001 74:0 75:7.4074001 76:0 77:0 78:0 79:0 80:0 81:0 82:3.7037001 83:0 84:3.7037001 85:0 86:0 87:0 88:0 89:0 90:0 91:0 92:0 93:0 94:0 95:0 96:0 97:0 98:0 99:0 100:0 101:0 102:0 103:0 104:0 105:0 106:0 107:0 108:3.8462 109:0 110:0 111:0 112:0 113:0 114:0 115:0 116:0 117:0 118:0 119:3.8462 120:0 121:0 122:0 123:0 124:3.8462 125:3.8462 126:0 127:0 128:0 129:0 130:0 131:0 132:0 133:0 134:3.8462 135:0 136:0 137:0 138:0 139:0 140:0 141:0 142:0 143:0 144:0 145:0 146:0 147:0 148:0 149:0 150:0 151:0 152:0 153:0 154:0 155:0 156:0 157:3.8462 158:0 159:3.8462 160:0 161:3.8462 162:0 163:0 164:0 165:0 166:0 167:0 168:0 169:0 170:0 171:0 172:0 173:0 174:0 175:0 176:0 177:0 178:3.8462 179:0 180:0 181:0 182:0 183:0 184:0 185:3.8462 186:0 187:0 188:0 189:0 190:0 191:0 192:0 193:0 194:3.8462 195:0 196:0 197:0 198:0 199:0 200:0 201:0 202:0 203:3.8462 204:0 205:0 206:0 207:0 208:0 209:0 210:0 211:0 212:3.8462 213:0 214:0 215:0 216:0 217:0 218:0 219:0 220:0 221:0 222:3.8462 223:3.8462 224:0 225:0 226:0 227:0 228:0 229:0 230:0 231:3.8462 232:0 233:0 234:0 235:0 236:0 237:0 238:0 239:0 240:0 241:0 242:0 243:0 244:3.8462 245:0 246:0 247:3.8462 248:0 249:0 250:0 251:0 252:0 253:0 254:0 255:0 256:0 257:0 258:0 259:0 260:0 261:0 262:0 263:0 264:0 265:0 266:0 267:3.8462 268:0 269:0 270:0 271:0 272:0 273:0 274:0 275:0 276:0 277:0 278:0 279:0 280:0 281:0 282:3.8462 283:0 284:0 285:0 286:0 287:0 288:0 289:0 290:0 291:0 292:0 293:0 294:0 295:3.8462 296:3.8462 297:0 298:0 299:0 300:0 301:0 302:3.8462 303:0 304:3.8462 305:0 306:0 307:0 308:0 309:0 310:0 311:0 312:0 313:0 314:0 315:0 316:0 317:0 318:0 319:0 320:0 321:0 322:0 323:0 324:0 325:0 326:0 327:0 328:0 329:3.8462 330:0 331:0 332:0 333:0 334:0 335:0 336:0 337:0 338:3.8462 339:0 340:0 341:0 342:-0.22400001 343:-0.83200002 344:-0.11 345:-0.63300002 346:-0.32600001 347:-0.472 348:-0.41600001 349:-0.47 350:-0.68400002 351:-1.304 352:-0.44800001 353:-0.133 354:-0.94 355:0 356:-0.37200001 #
200 1:10 2:23.3333 3:33.333302 4:33.333302 5:6.8965998 6:3.4482999 7:0 8:0 9:0 10:3.4482999 11:17.2414 12:3.4482999 13:0 14:3.4482999 15:10.3448 16:20.689699 17:3.4482999 18:13.7931 19:6.8965998 20:6.8965998 21:3.5713999 22:3.5713999 23:0 24:0 25:0 26:0 27:0 28:3.5713999 29:0 30:0 31:0 32:0 33:0 34:0 35:0 36:0 37:0 38:0 39:0 40:0 41:0 42:0 43:3.5713999 44:0 45:0 46:3.5713999 47:3.5713999 48:10.7143 49:0 50:0 51:3.5713999 52:0 53:0 54:0 55:0 56:0 57:0 58:3.5713999 59:0 60:0 61:0 62:0 63:3.5713999 64:7.1429 65:0 66:14.2857 67:0 68:7.1429 69:3.5713999 70:0 71:0 72:0 73:0 74:0 75:14.2857 76:0 77:0 78:0 79:3.5713999 80:3.5713999 81:0 82:0 83:3.5713999 84:0 85:0 86:3.7037001 87:0 88:0 89:0 90:0 91:0 92:3.7037001 93:0 94:0 95:0 96:0 97:0 98:0 99:0 100:0 101:0 102:0 103:0 104:0 105:0 106:0 107:0 108:0 109:0 110:0 111:0 112:0 113:0 114:0 115:3.7037001 116:0 117:0 118:0 119:0 120:0 121:0 122:0 123:0 124:0 125:0 126:0 127:0 128:0 129:0 130:0 131:0 132:0 133:0 134:0 135:0 136:0 137:0 138:0 139:0 140:0 141:0 142:0 143:0 144:0 145:0 146:0 147:0 148:0 149:0 150:0 151:0 152:0 153:0 154:0 155:0 156:0 157:0 158:0 159:0 160:0 161:0 162:0 163:0 164:0 165:0 166:0 167:0 168:0 169:0 170:0 171:0 172:0 173:0 174:0 175:0 176:3.7037001 177:0 178:0 179:0 180:0 181:0 182:0 183:0 184:0 185:0 186:3.7037001 187:0 188:0 189:0 190:0 191:0 192:3.7037001 193:0 194:7.4074001 195:0 196:3.7037001 197:0 198:0 199:0 200:0 201:0 202:0 203:0 204:0 205:0 206:0 207:0 208:3.7037001 209:0 210:0 211:0 212:0 213:0 214:0 215:0 216:0 217:0 218:0 219:0 220:0 221:0 222:0 223:0 224:0 225:0 226:0 227:0 228:0 229:0 230:0 231:0 232:0 233:0 234:0 235:3.7037001 236:0 237:0 238:0 239:0 240:0 241:0 242:0 243:0 244:0 245:0 246:0 247:0 248:0 249:0 250:0 251:0 252:0 253:0 254:0 255:0 256:3.7037001 257:0 258:7.4074001 259:0 260:0 261:0 262:0 263:0 264:0 265:0 266:0 267:14.8148 268:0 269:0 270:0 271:0 272:0 273:0 274:0 275:3.7037001 276:0 277:3.7037001 278:0 279:0 280:0 281:0 282:0 283:0 284:0 285:0 286:0 287:0 288:0 289:0 290:0 291:0 292:0 293:0 294:0 295:0 296:0 297:0 298:0 299:0 300:0 301:0 302:3.7037001 303:3.7037001 304:7.4074001 305:0 306:0 307:0 308:0 309:0 310:0 311:0 312:0 313:0 314:0 315:0 316:0 317:0 318:0 319:3.7037001 320:0 321:0 322:0 323:0 324:3.7037001 325:0 326:0 327:0 328:0 329:0 330:0 331:0 332:0 333:0 334:0 335:3.7037001 336:0 337:0 338:0 339:0 340:0 341:-0.186 342:-0.22400001 343:0 344:0 345:0 346:-0.32600001 347:-1.1799999 348:-0.208 349:0 350:-0.34200001 351:-0.97799999 352:-1.7920001 353:-0.133 354:-0.94 355:-0.42199999 356:-0.186 #
-173.60520018281567899975925683975 1:25.806499 2:19.354799 3:16.129 4:38.709702 5:6.6666999 6:6.6666999 7:3.3333001 8:10 9:0 10:6.6666999 11:0 12:13.3333 13:3.3333001 14:0 15:6.6666999 16:6.6666999 17:16.6667 18:6.6666999 19:3.3333001 20:10 21:0 22:3.4482999 23:0 24:3.4482999 25:0 26:3.4482999 27:0 28:3.4482999 29:0 30:0 31:3.4482999 32:0 33:0 34:0 35:3.4482999 36:6.8965998 37:0 38:0 39:0 40:0 41:0 42:3.4482999 43:0 44:3.4482999 45:0 46:0 47:0 48:0 49:6.8965998 50:3.4482999 51:0 52:0 53:0 54:0 55:0 56:3.4482999 57:0 58:0 59:0 60:0 61:3.4482999 62:0 63:0 64:3.4482999 65:6.8965998 66:0 67:0 68:0 69:6.8965998 70:3.4482999 71:3.4482999 72:3.4482999 73:0 74:0 75:0 76:6.8965998 77:0 78:0 79:3.4482999 80:0 81:3.4482999 82:3.4482999 83:0 84:3.4482999 85:0 86:0 87:0 88:0 89:0 90:3.5713999 91:0 92:0 93:0 94:0 95:0 96:0 97:0 98:0 99:3.5713999 100:0 101:0 102:0 103:0 104:0 105:0 106:3.5713999 107:0 108:0 109:0 110:0 111:0 112:0 113:0 114:0 115:0 116:0 117:0 118:0 119:0 120:0 121:0 122:0 123:0 124:0 125:3.5713999 126:0 127:0 128:0 129:0 130:0 131:0 132:0 133:0 134:0 135:0 136:0 137:0 138:0 139:0 140:0 141:0 142:0 143:3.5713999 144:0 145:0 146:3.5713999 147:0 148:3.5713999 149:0 150:0 151:0 152:0 153:0 154:0 155:0 156:0 157:0 158:0 159:0 160:0 161:0 162:0 163:0 164:0 165:0 166:0 167:0 168:0 169:0 170:0 171:0 172:3.5713999 173:0 174:0 175:0 176:0 177:0 178:3.5713999 179:0 180:0 181:0 182:0 183:0 184:0 185:0 186:0 187:0 188:0 189:0 190:0 191:0 192:0 193:0 194:0 195:0 196:0 197:7.1429 198:0 199:0 200:0 201:0 202:0 203:0 204:3.5713999 205:0 206:0 207:0 208:0 209:0 210:0 211:0 212:0 213:0 214:0 215:0 216:0 217:0 218:0 219:0 220:0 221:0 222:0 223:0 224:0 225:0 226:0 227:0 228:3.5713999 229:0 230:0 231:0 232:0 233:0 234:0 235:0 236:0 237:0 238:0 239:0 240:0 241:0 242:0 243:0 244:0 245:0 246:0 247:0 248:3.5713999 249:0 250:0 251:0 252:0 253:0 254:0 255:0 256:0 257:3.5713999 258:0 259:0 260:0 261:0 262:0 263:3.5713999 264:3.5713999 265:0 266:0 267:0 268:0 269:0 270:0 271:0 272:0 273:0 274:0 275:0 276:0 277:0 278:3.5713999 279:0 280:3.5713999 281:0 282:0 283:0 284:3.5713999 285:0 286:0 287:3.5713999 288:0 289:0 290:0 291:0 292:3.5713999 293:0 294:0 295:0 296:0 297:0 298:0 299:0 300:0 301:0 302:0 303:0 304:0 305:7.1429 306:0 307:0 308:0 309:0 310:0 311:0 312:0 313:0 314:0 315:0 316:0 317:0 318:0 319:0 320:3.5713999 321:0 322:0 323:0 324:0 325:0 326:3.5713999 327:0 328:0 329:0 330:0 331:0 332:3.5713999 333:0 334:0 335:0 336:0 337:3.5713999 338:0 339:0 340:0 341:-0.186 342:-0.44800001 343:-0.208 344:-0.33000001 345:0 346:-0.65200001 347:0 348:-0.83200002 349:-0.235 350:0 351:-0.65200001 352:-0.67199999 353:-0.66500002 354:-0.47 355:-0.211 356:-0.465 #
-200 1:20.689699 2:6.8965998 3:37.931 4:34.4828 5:0 6:3.5713999 7:3.5713999 8:10.7143 9:3.5713999 10:0 11:0 12:3.5713999 13:7.1429 14:0 15:14.2857 16:17.8571 17:10.7143 18:3.5713999 19:21.4286 20:0 21:0 22:0 23:0 24:0 25:0 26:0 27:0 28:3.7037001 29:0 30:0 31:3.7037001 32:0 33:0 34:3.7037001 35:7.4074001 36:0 37:0 38:3.7037001 39:0 40:0 41:0 42:0 43:0 44:0 45:0 46:0 47:0 48:0 49:3.7037001 50:0 51:0 52:0 53:0 54:0 55:0 56:7.4074001 57:0 58:0 59:0 60:0 61:3.7037001 62:0 63:3.7037001 64:7.4074001 65:7.4074001 66:0 67:11.1111 68:0 69:0 70:0 71:3.7037001 72:3.7037001 73:3.7037001 74:0 75:0 76:0 77:3.7037001 78:0 79:7.4074001 80:11.1111 81:0 82:0 83:0 84:0 85:0 86:0 87:0 88:0 89:0 90:0 91:0 92:0 93:0 94:0 95:0 96:0 97:0 98:0 99:0 100:0 101:0 102:0 103:0 104:0 105:0 106:0 107:0 108:0 109:0 110:0 111:0 112:0 113:3.8462 114:0 115:0 116:0 117:0 118:0 119:0 120:0 121:0 122:0 123:0 124:0 125:0 126:0 127:3.8462 128:0 129:0 130:0 131:0 132:0 133:0 134:0 135:0 136:0 137:3.8462 138:0 139:0 140:0 141:0 142:0 143:0 144:7.6922998 145:0 146:0 147:0 148:0 149:0 150:0 151:0 152:0 153:0 154:0 155:0 156:3.8462 157:0 158:0 159:0 160:0 161:0 162:0 163:0 164:0 165:0 166:0 167:0 168:0 169:0 170:0 171:0 172:0 173:0 174:0 175:0 176:0 177:0 178:0 179:0 180:0 181:0 182:0 183:0 184:0 185:0 186:0 187:0 188:0 189:0 190:0 191:0 192:0 193:0 194:0 195:0 196:0 197:0 198:0 199:0 200:3.8462 201:0 202:0 203:0 204:0 205:0 206:0 207:0 208:0 209:0 210:0 211:0 212:0 213:0 214:0 215:0 216:0 217:0 218:0 219:0 220:0 221:0 222:0 223:0 224:0 225:0 226:3.8462 227:3.8462 228:0 229:0 230:0 231:0 232:0 233:0 234:0 235:0 236:0 237:0 238:0 239:0 240:0 241:0 242:0 243:0 244:0 245:0 246:0 247:0 248:3.8462 249:0 250:0 251:0 252:0 253:0 254:0 255:0 256:3.8462 257:0 258:0 259:7.6922998 260:0 261:0 262:0 263:3.8462 264:0 265:0 266:0 267:0 268:0 269:3.8462 270:0 271:7.6922998 272:0 273:0 274:0 275:0 276:0 277:0 278:0 279:0 280:0 281:0 282:0 283:0 284:0 285:0 286:0 287:3.8462 288:0 289:0 290:0 291:3.8462 292:0 293:0 294:3.8462 295:0 296:0 297:0 298:0 299:0 300:0 301:0 302:0 303:0 304:0 305:0 306:0 307:0 308:0 309:0 310:0 311:0 312:3.8462 313:0 314:0 315:0 316:0 317:3.8462 318:0 319:0 320:3.8462 321:7.6922998 322:0 323:3.8462 324:0 325:0 326:0 327:0 328:0 329:0 330:0 331:0 332:0 333:0 334:0 335:0 336:0 337:0 338:0 339:0 340:0 341:0 342:-0.22400001 343:-0.208 344:-0.33000001 345:-0.211 346:0 347:0 348:-0.208 349:-0.47 350:0 351:-1.956 352:-1.344 353:-0.39899999 354:-0.235 355:-1.266 356:-0.186 #
200 1:6.6666999 2:16.6667 3:40 4:36.666698 5:0 6:0 7:3.4482999 8:3.4482999 9:3.4482999 10:3.4482999 11:3.4482999 12:6.8965998 13:3.4482999 14:10.3448 15:10.3448 16:17.2414 17:0 18:3.4482999 19:24.137899 20:6.8965998 21:0 22:0 23:0 24:0 25:0 26:0 27:0 28:0 29:0 30:3.5713999 31:0 32:0 33:0 34:0 35:3.5713999 36:0 37:0 38:0 39:3.5713999 40:0 41:3.5713999 42:0 43:0 44:0 45:0 46:0 47:3.5713999 48:0 49:0 50:0 51:3.5713999 52:3.5713999 53:0 54:0 55:0 56:3.5713999 57:0 58:0 59:3.5713999 60:7.1429 61:0 62:0 63:3.5713999 64:7.1429 65:0 66:0 67:14.2857 68:0 69:0 70:0 71:0 72:0 73:0 74:3.5713999 75:0 76:0 77:3.5713999 78:7.1429 79:3.5713999 80:10.7143 81:0 82:0 83:3.5713999 84:3.5713999 85:0 86:0 87:0 88:0 89:0 90:0 91:0 92:0 93:0 94:0 95:0 96:0 97:0 98:0 99:0 100:0 101:0 102:0 103:0 104:0 105:0 106:0 107:0 108:0 109:0 110:0 111:0 112:0 113:0 114:0 115:0 116:0 117:0 118:0 119:0 120:0 121:0 122:0 123:0 124:3.7037001 125:0 126:0 127:0 128:0 129:0 130:0 131:0 132:0 133:0 134:0 135:0 136:0 137:0 138:0 139:0 140:0 141:0 142:0 143:0 144:3.7037001 145:0 146:0 147:0 148:0 149:0 150:0 151:0 152:0 153:0 154:0 155:0 156:0 157:0 158:3.7037001 159:0 160:0 161:0 162:0 163:0 164:0 165:0 166:0 167:3.7037001 168:0 169:0 170:0 171:0 172:0 173:0 174:0 175:0 176:0 177:0 178:0 179:0 180:0 181:0 182:0 183:0 184:0 185:0 186:0 187:0 188:0 189:0 190:0 191:3.7037001 192:0 193:0 194:0 195:0 196:0 197:0 198:0 199:0 200:0 201:0 202:0 203:0 204:0 205:0 206:0 207:0 208:3.7037001 209:0 210:0 211:0 212:3.7037001 213:0 214:0 215:0 216:0 217:0 218:0 219:0 220:0 221:0 222:0 223:0 224:0 225:0 226:0 227:3.7037001 228:0 229:0 230:0 231:0 232:0 233:0 234:0 235:0 236:0 237:0 238:0 239:3.7037001 240:0 241:0 242:0 243:3.7037001 244:3.7037001 245:0 246:0 247:0 248:0 249:0 250:0 251:0 252:0 253:0 254:0 255:0 256:3.7037001 257:0 258:0 259:7.4074001 260:0 261:0 262:0 263:0 264:0 265:0 266:0 267:0 268:0 269:0 270:7.4074001 271:3.7037001 272:3.7037001 273:0 274:0 275:0 276:0 277:0 278:0 279:0 280:0 281:0 282:0 283:0 284:0 285:0 286:0 287:0 288:0 289:0 290:0 291:0 292:0 293:0 294:0 295:0 296:0 297:3.7037001 298:0 299:0 300:0 301:0 302:0 303:0 304:0 305:0 306:0 307:0 308:0 309:0 310:0 311:0 312:3.7037001 313:0 314:0 315:3.7037001 316:3.7037001 317:0 318:0 319:0 320:3.7037001 321:0 322:0 323:7.4074001 324:0 325:0 326:0 327:0 328:0 329:0 330:0 331:0 332:0 333:3.7037001 334:0 335:0 336:0 337:0 338:0 339:3.7037001 340:0 341:0 342:0 343:-0.208 344:-0.11 345:-0.211 346:-0.32600001 347:-0.236 348:-0.41600001 349:-0.235 350:-1.026 351:-1.304 352:-1.344 353:0 354:-0.235 355:-1.477 356:-0.186 #
200 1:31.0345 2:17.2414 3:3.4482999 4:48.275902 5:17.8571 6:0 7:0 8:14.2857 9:10.7143 10:3.5713999 11:0 12:0 13:0 14:3.5713999 15:0 16:0 17:3.5713999 18:10.7143 19:3.5713999 20:32.142899 21:11.1111 22:0 23:0 24:7.4074001 25:0 26:0 27:0 28:0 29:0 30:0 31:0 32:0 33:3.7037001 34:7.4074001 35:0 36:3.7037001 37:7.4074001 38:0 39:0 40:3.7037001 41:3.7037001 42:0 43:0 44:0 45:0 46:0 47:0 48:0 49:0 50:0 51:0 52:0 53:0 54:0 55:0 56:0 57:0 58:3.7037001 59:0 60:0 61:0 62:0 63:0 64:0 65:0 66:0 67:0 68:0 69:0 70:0 71:0 72:3.7037001 73:7.4074001 74:0 75:0 76:0 77:0 78:3.7037001 79:0 80:0 81:0 82:3.7037001 83:0 84:29.629601 85:3.8462 86:0 87:0 88:7.6922998 89:0 90:0 91:0 92:0 93:0 94:0 95:0 96:0 97:3.8462 98:3.8462 99:0 100:0 101:0 102:0 103:0 104:0 105:0 106:0 107:0 108:0 109:0 110:0 111:0 112:0 113:0 114:0 115:0 116:0 117:0 118:0 119:0 120:0 121:0 122:0 123:0 124:0 125:0 126:0 127:0 128:0 129:0 130:0 131:0 132:0 133:0 134:0 135:0 136:3.8462 137:3.8462 138:0 139:0 140:0 141:0 142:0 143:0 144:0 145:0 146:0 147:0 148:3.8462 149:7.6922998 150:0 151:0 152:0 153:0 154:0 155:0 156:0 157:0 158:0 159:0 160:0 161:0 162:0 163:0 164:3.8462 165:0 166:0 167:0 168:3.8462 169:0 170:0 171:0 172:0 173:0 174:0 175:0 176:0 177:0 178:0 179:0 180:0 181:0 182:0 183:0 184:0 185:0 186:0 187:0 188:0 189:0 190:0 191:0 192:0 193:0 194:0 195:0 196:0 197:0 198:0 199:0 200:0 201:0 202:0 203:0 204:0 205:0 206:0 207:0 208:0 209:0 210:0 211:0 212:0 213:0 214:0 215:0 216:0 217:0 218:0 219:0 220:0 221:0 222:0 223:0 224:0 225:0 226:0 227:0 228:0 229:0 230:0 231:0 232:0 233:3.8462 234:0 235:0 236:0 237:0 238:0 239:0 240:0 241:0 242:0 243:0 244:0 245:0 246:0 247:0 248:0 249:0 250:0 251:0 252:0 253:0 254:0 255:0 256:0 257:0 258:0 259:0 260:0 261:0 262:0 263:0 264:0 265:0 266:0 267:0 268:0 269:0 270:0 271:0 272:0 273:0 274:0 275:0 276:0 277:0 278:0 279:0 280:0 281:0 282:0 283:0 284:0 285:0 286:0 287:0 288:0 289:0 290:3.8462 291:0 292:0 293:7.6922998 294:0 295:0 296:0 297:0 298:0 299:0 300:0 301:0 302:0 303:0 304:0 305:0 306:0 307:0 308:0 309:0 310:0 311:0 312:0 313:0 314:3.8462 315:0 316:0 317:0 318:0 319:0 320:0 321:0 322:0 323:0 324:0 325:0 326:0 327:0 328:0 329:3.8462 330:0 331:0 332:0 333:0 334:0 335:0 336:0 337:0 338:3.8462 339:0 340:26.9231 341:-0.465 342:0 343:0 344:-0.44 345:-0.63300002 346:-0.65200001 347:0 348:0 349:0 350:-0.68400002 351:-0.32600001 352:-0.22400001 353:-0.133 354:-0.70499998 355:-0.211 356:-0.93000001 #
28.056067211350864454288966953754 1:36.666698 2:30 3:6.6666999 4:26.6667 5:10.3448 6:17.2414 7:0 8:10.3448 9:20.689699 10:3.4482999 11:0 12:3.4482999 13:0 14:3.4482999 15:0 16:3.4482999 17:6.8965998 18:6.8965998 19:6.8965998 20:6.8965998 21:0 22:3.5713999 23:0 24:7.1429 25:14.2857 26:3.5713999 27:0 28:0 29:0 30:0 31:0 32:0 33:0 34:3.5713999 35:3.5713999 36:3.5713999 37:10.7143 38:7.1429 39:0 40:3.5713999 41:3.5713999 42:0 43:0 44:0 45:0 46:0 47:0 48:0 49:0 50:0 51:3.5713999 52:0 53:0 54:0 55:0 56:0 57:0 58:0 59:0 60:3.5713999 61:0 62:0 63:0 64:0 65:0 66:3.5713999 67:0 68:0 69:0 70:7.1429 71:0 72:0 73:3.5713999 74:0 75:0 76:0 77:0 78:3.5713999 79:0 80:3.5713999 81:3.5713999 82:0 83:0 84:3.5713999 85:0 86:0 87:0 88:0 89:3.7037001 90:0 91:0 92:0 93:0 94:0 95:0 96:0 97:0 98:3.7037001 99:0 100:3.7037001 101:11.1111 102:0 103:0 104:3.7037001 105:3.7037001 106:0 107:0 108:0 109:0 110:0 111:0 112:0 113:0 114:0 115:0 116:0 117:0 118:0 119:0 120:0 121:0 122:0 123:0 124:0 125:0 126:0 127:0 128:0 129:0 130:0 131:0 132:0 133:0 134:0 135:0 136:0 137:0 138:0 139:0 140:0 141:0 142:3.7037001 143:0 144:0 145:0 146:0 147:0 148:3.7037001 149:0 150:3.7037001 151:0 152:7.4074001 153:7.4074001 154:0 155:0 156:0 157:0 158:0 159:0 160:0 161:0 162:0 163:3.7037001 164:0 165:0 166:3.7037001 167:0 168:0 169:0 170:0 171:0 172:0 173:0 174:0 175:0 176:0 177:0 178:0 179:0 180:0 181:0 182:0 183:0 184:0 185:0 186:0 187:0 188:0 189:0 190:0 191:0 192:0 193:0 194:0 195:0 196:0 197:0 198:0 199:0 200:0 201:0 202:0 203:0 204:0 205:0 206:0 207:0 208:3.7037001 209:0 210:0 211:0 212:0 213:0 214:0 215:0 216:0 217:0 218:0 219:0 220:0 221:0 222:0 223:0 224:0 225:0 226:0 227:0 228:0 229:0 230:0 231:0 232:0 233:0 234:0 235:0 236:0 237:0 238:0 239:0 240:0 241:0 242:0 243:3.7037001 244:0 245:0 246:0 247:0 248:0 249:0 250:0 251:0 252:0 253:0 254:0 255:0 256:0 257:0 258:0 259:0 260:0 261:0 262:0 263:0 264:0 265:3.7037001 266:0 267:0 268:0 269:0 270:0 271:0 272:0 273:0 274:0 275:0 276:0 277:0 278:0 279:0 280:0 281:3.7037001 282:3.7037001 283:0 284:0 285:0 286:0 287:0 288:0 289:0 290:0 291:0 292:0 293:0 294:3.7037001 295:0 296:0 297:0 298:0 299:0 300:0 301:0 302:0 303:0 304:0 305:0 306:0 307:0 308:0 309:0 310:0 311:0 312:0 313:0 314:0 315:0 316:3.7037001 317:0 318:0 319:0 320:0 321:0 322:3.7037001 323:0 324:0 325:0 326:3.7037001 327:0 328:0 329:0 330:0 331:0 332:0 333:0 334:0 335:0 336:0 337:3.7037001 338:0 339:0 340:0 341:-0.27900001 342:-1.12 343:0 344:-0.33000001 345:-1.266 346:-0.65200001 347:0 348:-0.208 349:0 350:-0.68400002 351:-0.32600001 352:-0.44800001 353:-0.266 354:-0.47 355:-0.42199999 356:-0.186 #
200 1:36.666698 2:26.6667 3:3.3333001 4:33.333302 5:13.7931 6:6.8965998 7:0 8:17.2414 9:3.4482999 10:13.7931 11:0 12:6.8965998 13:3.4482999 14:0 15:0 16:0 17:17.2414 18:6.8965998 19:3.4482999 20:6.8965998 21:3.5713999 22:3.5713999 23:0 24:7.1429 25:3.5713999 26:0 27:0 28:3.5713999 29:0 30:0 31:0 32:0 33:7.1429 34:3.5713999 35:0 36:7.1429 37:0 38:0 39:0 40:3.5713999 41:0 42:10.7143 43:0 44:3.5713999 45:0 46:0 47:0 48:0 49:3.5713999 50:0 51:3.5713999 52:0 53:3.5713999 54:0 55:0 56:0 57:0 58:0 59:0 60:0 61:0 62:0 63:0 64:0 65:0 66:0 67:0 68:0 69:7.1429 70:3.5713999 71:0 72:7.1429 73:0 74:3.5713999 75:0 76:0 77:3.5713999 78:0 79:0 80:0 81:3.5713999 82:3.5713999 83:0 84:0 85:0 86:0 87:0 88:3.7037001 89:3.7037001 90:0 91:0 92:0 93:0 94:0 95:0 96:0 97:3.7037001 98:0 99:0 100:3.7037001 101:0 102:0 103:0 104:3.7037001 105:0 106:0 107:0 108:0 109:0 110:0 111:0 112:0 113:0 114:0 115:3.7037001 116:0 117:0 118:0 119:0 120:0 121:0 122:0 123:0 124:0 125:0 126:0 127:0 128:0 129:0 130:0 131:0 132:0 133:3.7037001 134:0 135:0 136:3.7037001 137:0 138:3.7037001 139:0 140:0 141:0 142:0 143:0 144:0 145:3.7037001 146:3.7037001 147:0 148:0 149:0 150:0 151:0 152:0 153:0 154:0 155:0 156:0 157:0 158:0 159:0 160:0 161:3.7037001 162:0 163:0 164:0 165:0 166:0 167:0 168:0 169:0 170:7.4074001 171:0 172:3.7037001 173:0 174:0 175:0 176:0 177:3.7037001 178:0 179:0 180:0 181:0 182:0 183:0 184:0 185:0 186:0 187:0 188:0 189:0 190:0 191:0 192:0 193:0 194:0 195:0 196:0 197:0 198:3.7037001 199:0 200:0 201:0 202:0 203:0 204:0 205:3.7037001 206:0 207:0 208:0 209:0 210:0 211:0 212:0 213:3.7037001 214:0 215:0 216:0 217:0 218:0 219:0 220:0 221:0 222:0 223:0 224:0 225:0 226:0 227:0 228:0 229:0 230:0 231:0 232:0 233:0 234:0 235:0 236:0 237:0 238:0 239:0 240:0 241:0 242:0 243:0 244:0 245:0 246:0 247:0 248:0 249:0 250:0 251:0 252:0 253:0 254:0 255:0 256:0 257:0 258:0 259:0 260:0 261:0 262:0 263:0 264:0 265:0 266:0 267:0 268:0 269:0 270:0 271:0 272:0 273:0 274:0 275:0 276:0 277:0 278:3.7037001 279:0 280:3.7037001 281:0 282:0 283:0 284:3.7037001 285:0 286:0 287:0 288:0 289:0 290:3.7037001 291:0 292:3.7037001 293:0 294:0 295:0 296:0 297:0 298:3.7037001 299:0 300:0 301:0 302:0 303:0 304:0 305:0 306:0 307:0 308:0 309:3.7037001 310:0 311:0 312:0 313:0 314:0 315:0 316:0 317:0 318:0 319:0 320:0 321:0 322:0 323:0 324:0 325:0 326:0 327:0 328:3.7037001 329:0 330:0 331:0 332:0 333:0 334:0 335:0 336:0 337:0 338:0 339:0 340:0 341:-0.37200001 342:-0.44800001 343:0 344:-0.55000001 345:-0.211 346:-1.63 347:0 348:-0.41600001 349:-0.235 350:-0.34200001 351:-0.32600001 352:-0.22400001 353:-0.66500002 354:-0.47 355:-0.211 356:-0.186 #
-200 1:38.709702 2:22.580601 3:9.6773996 4:29.032301 5:13.3333 6:6.6666999 7:6.6666999 8:10 9:10 10:6.6666999 11:0 12:6.6666999 13:3.3333001 14:3.3333001 15:3.3333001 16:0 17:13.3333 18:6.6666999 19:0 20:10 21:6.8965998 22:0 23:3.4482999 24:3.4482999 25:3.4482999 26:0 27:0 28:3.4482999 29:3.4482999 30:0 31:3.4482999 32:0 33:6.8965998 34:0 35:0 36:3.4482999 37:6.8965998 38:0 39:0 40:0 41:0 42:3.4482999 43:0 44:3.4482999 45:0 46:0 47:0 48:0 49:3.4482999 50:3.4482999 51:0 52:0 53:0 54:0 55:0 56:3.4482999 57:3.4482999 58:0 59:0 60:0 61:0 62:3.4482999 63:0 64:0 65:0 66:0 67:0 68:0 69:0 70:6.8965998 71:3.4482999 72:3.4482999 73:3.4482999 74:3.4482999 75:0 76:0 77:0 78:0 79:0 80:0 81:3.4482999 82:3.4482999 83:0 84:3.4482999 85:3.5713999 86:0 87:0 88:3.5713999 89:0 90:0 91:0 92:0 93:3.5713999 94:0 95:0 96:0 97:0 98:0 99:0 100:3.5713999 101:0 102:0 103:0 104:0 105:0 106:0 107:0 108:0 109:0 110:0 111:0 112:0 113:0 114:3.5713999 115:0 116:0 117:0 118:0 119:0 120:3.5713999 121:0 122:0 123:0 124:0 125:0 126:3.5713999 127:0 128:0 129:0 130:0 131:0 132:0 133:0 134:0 135:3.5713999 136:3.5713999 137:0 138:0 139:0 140:0 141:0 142:0 143:0 144:0 145:3.5713999 146:0 147:0 148:0 149:3.5713999 150:0 151:3.5713999 152:0 153:0 154:0 155:0 156:0 157:0 158:0 159:0 160:0 161:0 162:0 163:0 164:0 165:0 166:0 167:0 168:0 169:0 170:0 171:0 172:3.5713999 173:0 174:0 175:0 176:0 177:3.5713999 178:0 179:0 180:0 181:0 182:0 183:0 184:0 185:0 186:0 187:0 188:0 189:0 190:0 191:0 192:0 193:0 194:0 195:0 196:0 197:0 198:3.5713999 199:0 200:0 201:0 202:3.5713999 203:0 204:0 205:0 206:0 207:0 208:0 209:0 210:0 211:0 212:0 213:0 214:0 215:0 216:0 217:0 218:0 219:0 220:0 221:0 222:0 223:0 224:0 225:3.5713999 226:0 227:0 228:0 229:3.5713999 230:0 231:0 232:0 233:0 234:0 235:0 236:0 237:0 238:0 239:0 240:0 241:0 242:0 243:0 244:0 245:0 246:0 247:0 248:0 249:3.5713999 250:0 251:0 252:0 253:0 254:0 255:0 256:0 257:0 258:0 259:0 260:0 261:0 262:0 263:0 264:0 265:0 266:0 267:0 268:0 269:0 270:0 271:0 272:0 273:0 274:0 275:0 276:0 277:0 278:0 279:0 280:0 281:3.5713999 282:0 283:0 284:3.5713999 285:0 286:0 287:3.5713999 288:0 289:3.5713999 290:0 291:0 292:0 293:3.5713999 294:0 295:0 296:0 297:0 298:3.5713999 299:0 300:0 301:0 302:0 303:0 304:0 305:0 306:0 307:0 308:0 309:0 310:0 311:0 312:0 313:0 314:0 315:0 316:0 317:0 318:0 319:0 320:0 321:0 322:0 323:0 324:0 325:0 326:3.5713999 327:0 328:0 329:3.5713999 330:0 331:0 332:0 333:0 334:0 335:0 336:0 337:0 338:3.5713999 339:0 340:0 341:-0.37200001 342:-0.44800001 343:-0.41600001 344:-0.33000001 345:-0.63300002 346:-0.65200001 347:0 348:-0.41600001 349:-0.235 350:-0.34200001 351:-0.32600001 352:-0.22400001 353:-0.53200001 354:-0.47 355:0 356:-0.465 #
-200 1:36.666698 2:20 3:13.3333 4:30 5:17.2414 6:3.4482999 7:10.3448 8:3.4482999 9:6.8965998 10:3.4482999 11:0 12:10.3448 13:6.8965998 14:3.4482999 15:0 16:3.4482999 17:6.8965998 18:10.3448 19:3.4482999 20:10.3448 21:3.5713999 22:3.5713999 23:3.5713999 24:3.5713999 25:3.5713999 26:0 27:0 28:0 29:7.1429 30:3.5713999 31:0 32:0 33:0 34:3.5713999 35:0 36:0 37:7.1429 38:0 39:0 40:0 41:0 42:0 43:0 44:3.5713999 45:0 46:0 47:0 48:0 49:3.5713999 50:7.1429 51:0 52:0 53:7.1429 54:0 55:0 56:0 57:0 58:0 59:0 60:3.5713999 61:0 62:0 63:0 64:0 65:0 66:0 67:0 68:3.5713999 69:0 70:0 71:7.1429 72:0 73:3.5713999 74:3.5713999 75:0 76:3.5713999 77:0 78:0 79:0 80:3.5713999 81:3.5713999 82:0 83:3.5713999 84:3.5713999 85:0 86:0 87:3.7037001 88:0 89:3.7037001 90:0 91:0 92:0 93:3.7037001 94:0 95:0 96:0 97:0 98:3.7037001 99:0 100:0 101:3.7037001 102:0 103:0 104:0 105:0 106:0 107:0 108:0 109:0 110:0 111:0 112:0 113:0 114:0 115:0 116:0 117:7.4074001 118:0 119:0 120:0 121:0 122:0 123:0 124:3.7037001 125:0 126:0 127:0 128:0 129:0 130:0 131:0 132:0 133:0 134:0 135:0 136:0 137:0 138:3.7037001 139:0 140:0 141:0 142:0 143:0 144:0 145:0 146:0 147:0 148:0 149:0 150:0 151:0 152:3.7037001 153:0 154:0 155:0 156:0 157:0 158:0 159:0 160:0 161:0 162:0 163:0 164:0 165:0 166:0 167:0 168:0 169:0 170:0 171:0 172:0 173:0 174:0 175:0 176:0 177:3.7037001 178:0 179:0 180:0 181:0 182:0 183:0 184:0 185:0 186:0 187:0 188:0 189:0 190:0 191:0 192:0 193:0 194:0 195:0 196:0 197:0 198:0 199:3.7037001 200:0 201:3.7037001 202:0 203:0 204:3.7037001 205:0 206:0 207:0 208:0 209:0 210:0 211:0 212:0 213:3.7037001 214:3.7037001 215:0 216:0 217:0 218:0 219:0 220:0 221:0 222:0 223:0 224:0 225:0 226:0 227:0 228:0 229:0 230:0 231:0 232:0 233:0 234:0 235:0 236:0 237:0 238:0 239:0 240:0 241:0 242:3.7037001 243:0 244:0 245:0 246:0 247:0 248:0 249:0 250:0 251:0 252:0 253:0 254:0 255:0 256:0 257:0 258:0 259:0 260:0 261:0 262:0 263:0 264:0 265:0 266:0 267:0 268:0 269:0 270:0 271:0 272:0 273:3.7037001 274:0 275:0 276:0 277:0 278:0 279:0 280:0 281:0 282:0 283:0 284:0 285:3.7037001 286:3.7037001 287:0 288:0 289:0 290:0 291:0 292:0 293:3.7037001 294:0 295:0 296:0 297:0 298:0 299:0 300:3.7037001 301:0 302:0 303:0 304:0 305:0 306:3.7037001 307:0 308:0 309:0 310:0 311:0 312:0 313:0 314:0 315:0 316:0 317:0 318:0 319:0 320:0 321:0 322:0 323:0 324:3.7037001 325:0 326:0 327:3.7037001 328:0 329:0 330:0 331:0 332:0 333:0 334:0 335:0 336:3.7037001 337:0 338:0 339:3.7037001 340:0 341:-0.465 342:-0.22400001 343:-0.62400001 344:-0.11 345:-0.42199999 346:-0.32600001 347:0 348:-0.62400001 349:-0.47 350:-0.34200001 351:-0.32600001 352:-0.44800001 353:-0.266 354:-0.70499998 355:-0.211 356:-0.465 #
-200 1:30 2:26.6667 3:6.6666999 4:36.666698 5:6.8965998 6:10.3448 7:0 8:13.7931 9:17.2414 10:3.4482999 11:3.4482999 12:3.4482999 13:3.4482999 14:0 15:0 16:3.4482999 17:3.4482999 18:13.7931 19:3.4482999 20:13.7931 21:0 22:7.1429 23:0 24:0 25:10.7143 26:0 27:0 28:0 29:0 30:0 31:0 32:0 33:3.5713999 34:0 35:3.5713999 36:3.5713999 37:7.1429 38:0 39:0 40:10.7143 41:0 42:0 43:0 44:3.5713999 45:0 46:0 47:0 48:3.5713999 49:0 50:3.5713999 51:0 52:0 53:0 54:0 55:0 56:3.5713999 57:0 58:0 59:0 60:0 61:0 62:0 63:0 64:0 65:0 66:3.5713999 67:0 68:0 69:0 70:3.5713999 71:0 72:0 73:7.1429 74:3.5713999 75:3.5713999 76:0 77:3.5713999 78:0 79:0 80:0 81:0 82:7.1429 83:0 84:7.1429 85:0 86:0 87:0 88:0 89:7.4074001 90:0 91:0 92:0 93:0 94:0 95:0 96:0 97:0 98:0 99:0 100:0 101:3.7037001 102:0 103:0 104:7.4074001 105:0 106:0 107:0 108:0 109:0 110:0 111:0 112:0 113:0 114:0 115:0 116:0 117:0 118:0 119:0 120:0 121:0 122:0 123:0 124:0 125:0 126:0 127:0 128:0 129:0 130:0 131:0 132:0 133:0 134:3.7037001 135:0 136:0 137:0 138:0 139:0 140:0 141:3.7037001 142:0 143:0 144:0 145:0 146:0 147:0 148:3.7037001 149:0 150:7.4074001 151:0 152:0 153:0 154:0 155:0 156:0 157:0 158:0 159:0 160:0 161:3.7037001 162:0 163:3.7037001 164:0 165:0 166:0 167:0 168:0 169:0 170:0 171:0 172:0 173:0 174:0 175:0 176:0 177:0 178:3.7037001 179:0 180:0 181:0 182:0 183:0 184:0 185:0 186:0 187:0 188:0 189:0 190:0 191:0 192:0 193:0 194:3.7037001 195:0 196:0 197:0 198:0 199:0 200:0 201:0 202:0 203:3.7037001 204:0 205:0 206:0 207:0 208:0 209:0 210:0 211:0 212:0 213:0 214:0 215:0 216:0 217:0 218:0 219:0 220:0 221:0 222:0 223:0 224:0 225:0 226:0 227:0 228:3.7037001 229:0 230:0 231:0 232:0 233:0 234:0 235:0 236:0 237:0 238:0 239:0 240:0 241:0 242:0 243:0 244:0 245:0 246:0 247:0 248:0 249:0 250:0 251:0 252:0 253:0 254:0 255:0 256:0 257:0 258:0 259:0 260:0 261:0 262:0 263:0 264:0 265:3.7037001 266:0 267:0 268:0 269:0 270:0 271:0 272:0 273:0 274:0 275:0 276:0 277:0 278:0 279:0 280:0 281:3.7037001 282:0 283:0 284:0 285:0 286:0 287:0 288:0 289:0 290:0 291:0 292:0 293:3.7037001 294:0 295:0 296:3.7037001 297:0 298:0 299:0 300:3.7037001 301:0 302:0 303:0 304:3.7037001 305:0 306:0 307:0 308:0 309:0 310:0 311:0 312:3.7037001 313:0 314:0 315:0 316:0 317:0 318:0 319:0 320:0 321:0 322:0 323:0 324:0 325:0 326:0 327:0 328:0 329:3.7037001 330:3.7037001 331:0 332:0 333:0 334:0 335:0 336:0 337:0 338:3.7037001 339:0 340:3.7037001 341:-0.186 342:-0.67199999 343:0 344:-0.44 345:-1.0549999 346:-0.32600001 347:-0.236 348:-0.208 349:-0.235 350:0 351:-0.32600001 352:-0.44800001 353:-0.133 354:-0.94 355:-0.211 356:-0.55800003 #
-200 1:36.666698 2:26.6667 3:10 4:26.6667 5:10.3448 6:6.8965998 7:3.4482999 8:13.7931 9:10.3448 10:10.3448 11:0 12:6.8965998 13:6.8965998 14:0 15:0 16:3.4482999 17:6.8965998 18:10.3448 19:6.8965998 20:3.4482999 21:0 22:3.5713999 23:3.5713999 24:3.5713999 25:0 26:3.5713999 27:0 28:3.5713999 29:3.5713999 30:0 31:0 32:0 33:7.1429 34:3.5713999 35:0 36:3.5713999 37:3.5713999 38:0 39:0 40:3.5713999 41:7.1429 42:0 43:0 44:3.5713999 45:0 46:0 47:0 48:0 49:0 50:0 51:7.1429 52:0 53:3.5713999 54:0 55:0 56:3.5713999 57:0 58:0 59:0 60:0 61:0 62:0 63:0 64:0 65:0 66:3.5713999 67:0 68:0 69:3.5713999 70:3.5713999 71:0 72:0 73:3.5713999 74:7.1429 75:0 76:0 77:3.5713999 78:0 79:0 80:3.5713999 81:0 82:3.5713999 83:0 84:0 85:0 86:0 87:0 88:0 89:0 90:3.7037001 91:0 92:0 93:3.7037001 94:0 95:0 96:0 97:0 98:3.7037001 99:0 100:0 101:0 102:0 103:0 104:0 105:3.7037001 106:0 107:0 108:0 109:0 110:0 111:0 112:0 113:0 114:0 115:3.7037001 116:0 117:3.7037001 118:0 119:0 120:0 121:0 122:0 123:0 124:0 125:0 126:0 127:0 128:0 129:0 130:0 131:0 132:0 133:3.7037001 134:3.7037001 135:0 136:0 137:0 138:3.7037001 139:0 140:0 141:0 142:0 143:0 144:0 145:0 146:3.7037001 147:0 148:0 149:0 150:0 151:0 152:3.7037001 153:0 154:0 155:0 156:0 157:0 158:0 159:0 160:0 161:0 162:0 163:0 164:3.7037001 165:0 166:0 167:0 168:3.7037001 169:0 170:0 171:0 172:0 173:0 174:0 175:0 176:0 177:0 178:0 179:3.7037001 180:0 181:0 182:0 183:0 184:0 185:0 186:0 187:0 188:0 189:0 190:0 191:0 192:0 193:0 194:0 195:0 196:0 197:0 198:0 199:0 200:0 201:0 202:0 203:0 204:0 205:3.7037001 206:0 207:0 208:3.7037001 209:0 210:0 211:0 212:0 213:0 214:3.7037001 215:0 216:0 217:0 218:0 219:0 220:0 221:0 222:0 223:0 224:0 225:3.7037001 226:0 227:0 228:0 229:0 230:0 231:0 232:0 233:0 234:0 235:0 236:0 237:0 238:0 239:0 240:0 241:0 242:0 243:0 244:0 245:0 246:0 247:0 248:0 249:0 250:0 251:0 252:0 253:0 254:0 255:0 256:0 257:0 258:0 259:0 260:0 261:0 262:0 263:0 264:0 265:0 266:3.7037001 267:0 268:0 269:0 270:0 271:0 272:0 273:0 274:0 275:0 276:0 277:0 278:0 279:3.7037001 280:0 281:0 282:0 283:0 284:3.7037001 285:0 286:0 287:0 288:0 289:0 290:0 291:0 292:0 293:3.7037001 294:0 295:0 296:0 297:3.7037001 298:0 299:0 300:3.7037001 301:0 302:0 303:0 304:0 305:0 306:0 307:0 308:0 309:0 310:0 311:0 312:3.7037001 313:0 314:0 315:0 316:0 317:0 318:0 319:0 320:0 321:0 322:3.7037001 323:0 324:0 325:0 326:0 327:0 328:0 329:3.7037001 330:0 331:0 332:0 333:0 334:0 335:0 336:0 337:0 338:0 339:0 340:0 341:-0.27900001 342:-0.44800001 343:-0.208 344:-0.44 345:-0.63300002 346:-0.97799999 347:0 348:-0.41600001 349:-0.47 350:0 351:-0.32600001 352:-0.44800001 353:-0.266 354:-0.70499998 355:-0.42199999 356:-0.27900001 #
200 1:26.6667 2:6.6666999 3:43.333302 4:23.3333 5:10.3448 6:6.8965998 7:6.8965998 8:3.4482999 9:0 10:0 11:3.4482999 12:3.4482999 13:10.3448 14:0 15:27.586201 16:6.8965998 17:6.8965998 18:0 19:6.8965998 20:6.8965998 21:7.1429 22:0 23:0 24:3.5713999 25:0 26:0 27:3.5713999 28:3.5713999 29:0 30:0 31:7.1429 32:0 33:3.5713999 34:0 35:0 36:0 37:0 38:0 39:0 40:0 41:0 42:0 43:0 44:0 45:3.5713999 46:0 47:0 48:0 49:0 50:0 51:0 52:3.5713999 53:0 54:3.5713999 55:7.1429 56:0 57:0 58:0 59:0 60:0 61:7.1429 62:0 63:14.2857 64:7.1429 65:0 66:0 67:3.5713999 68:3.5713999 69:3.5713999 70:3.5713999 71:0 72:0 73:0 74:0 75:0 76:0 77:0 78:0 79:7.1429 80:0 81:3.5713999 82:0 83:0 84:0 85:3.7037001 86:0 87:0 88:3.7037001 89:0 90:0 91:0 92:0 93:0 94:0 95:0 96:0 97:3.7037001 98:0 99:0 100:0 101:0 102:0 103:0 104:0 105:0 106:0 107:0 108:0 109:3.7037001 110:0 111:0 112:0 113:0 114:0 115:0 116:3.7037001 117:0 118:0 119:0 120:0 121:0 122:0 123:0 124:0 125:3.7037001 126:0 127:0 128:3.7037001 129:0 130:0 131:0 132:0 133:0 134:3.7037001 135:0 136:0 137:0 138:0 139:0 140:0 141:0 142:0 143:0 144:0 145:0 146:0 147:0 148:0 149:0 150:0 151:0 152:0 153:0 154:0 155:0 156:0 157:0 158:0 159:0 160:0 161:0 162:0 163:0 164:0 165:0 166:0 167:0 168:0 169:0 170:0 171:0 172:0 173:0 174:0 175:0 176:0 177:0 178:0 179:0 180:0 181:0 182:0 183:3.7037001 184:0 185:0 186:0 187:0 188:0 189:0 190:0 191:0 192:0 193:0 194:0 195:0 196:0 197:0 198:0 199:0 200:0 201:0 202:0 203:0 204:0 205:0 206:0 207:0 208:0 209:3.7037001 210:0 211:0 212:0 213:0 214:0 215:0 216:0 217:0 218:0 219:0 220:3.7037001 221:0 222:0 223:7.4074001 224:0 225:0 226:0 227:0 228:0 229:0 230:0 231:0 232:0 233:0 234:0 235:0 236:0 237:0 238:0 239:0 240:0 241:0 242:0 243:0 244:0 245:0 246:3.7037001 247:3.7037001 248:0 249:0 250:0 251:0 252:0 253:0 254:0 255:11.1111 256:3.7037001 257:0 258:0 259:3.7037001 260:3.7037001 261:0 262:0 263:0 264:0 265:0 266:0 267:0 268:0 269:0 270:0 271:3.7037001 272:0 273:0 274:0 275:0 276:0 277:3.7037001 278:0 279:0 280:0 281:0 282:0 283:3.7037001 284:0 285:0 286:0 287:0 288:0 289:0 290:0 291:0 292:0 293:0 294:0 295:0 296:0 297:0 298:0 299:0 300:0 301:0 302:0 303:0 304:0 305:0 306:0 307:0 308:0 309:0 310:0 311:0 312:0 313:0 314:0 315:0 316:0 317:3.7037001 318:0 319:3.7037001 320:0 321:0 322:0 323:0 324:0 325:3.7037001 326:0 327:0 328:0 329:0 330:0 331:0 332:0 333:0 334:0 335:0 336:0 337:0 338:0 339:0 340:0 341:-0.27900001 342:-0.44800001 343:-0.41600001 344:-0.11 345:0 346:0 347:-0.236 348:-0.41600001 349:-0.70499998 350:-0.34200001 351:-2.608 352:-0.44800001 353:-0.266 354:0 355:-0.42199999 356:-0.186 #
-200 1:13.3333 2:16.6667 3:43.333302 4:26.6667 5:0 6:0 7:6.8965998 8:6.8965998 9:3.4482999 10:3.4482999 11:3.4482999 12:3.4482999 13:3.4482999 14:6.8965998 15:27.586201 16:6.8965998 17:6.8965998 18:6.8965998 19:6.8965998 20:6.8965998 21:0 22:0 23:0 24:0 25:0 26:0 27:0 28:0 29:0 30:0 31:7.1429 32:0 33:0 34:3.5713999 35:0 36:3.5713999 37:0 38:0 39:0 40:3.5713999 41:3.5713999 42:0 43:0 44:0 45:0 46:0 47:0 48:3.5713999 49:3.5713999 50:0 51:0 52:0 53:0 54:0 55:3.5713999 56:0 57:0 58:0 59:3.5713999 60:3.5713999 61:0 62:7.1429 63:17.8571 64:3.5713999 65:3.5713999 66:0 67:0 68:3.5713999 69:0 70:0 71:3.5713999 72:3.5713999 73:0 74:3.5713999 75:0 76:0 77:3.5713999 78:0 79:3.5713999 80:0 81:0 82:3.5713999 83:3.5713999 84:0 85:0 86:0 87:0 88:0 89:0 90:0 91:0 92:0 93:0 94:0 95:0 96:0 97:0 98:0 99:0 100:0 101:0 102:0 103:0 104:0 105:0 106:0 107:0 108:0 109:0 110:0 111:0 112:0 113:0 114:0 115:0 116:0 117:0 118:0 119:0 120:0 121:0 122:0 123:0 124:0 125:0 126:3.7037001 127:3.7037001 128:0 129:0 130:0 131:0 132:0 133:0 134:0 135:0 136:0 137:0 138:0 139:0 140:0 141:0 142:0 143:0 144:0 145:0 146:3.7037001 147:0 148:0 149:0 150:0 151:0 152:0 153:0 154:0 155:0 156:0 157:0 158:0 159:0 160:0 161:0 162:3.7037001 163:0 164:0 165:0 166:0 167:0 168:3.7037001 169:0 170:0 171:0 172:0 173:0 174:0 175:0 176:0 177:0 178:0 179:0 180:0 181:0 182:0 183:0 184:0 185:0 186:0 187:0 188:0 189:0 190:0 191:0 192:0 193:3.7037001 194:0 195:0 196:0 197:0 198:0 199:0 200:3.7037001 201:0 202:0 203:0 204:0 205:0 206:0 207:0 208:0 209:0 210:0 211:0 212:0 213:0 214:0 215:0 216:0 217:0 218:0 219:0 220:0 221:0 222:0 223:3.7037001 224:0 225:0 226:0 227:0 228:0 229:0 230:0 231:0 232:0 233:0 234:0 235:0 236:0 237:0 238:0 239:0 240:3.7037001 241:3.7037001 242:0 243:0 244:0 245:0 246:0 247:0 248:0 249:0 250:0 251:3.7037001 252:3.7037001 253:0 254:3.7037001 255:11.1111 256:3.7037001 257:0 258:0 259:0 260:3.7037001 261:0 262:0 263:3.7037001 264:0 265:0 266:0 267:0 268:0 269:0 270:0 271:0 272:0 273:0 274:0 275:3.7037001 276:0 277:0 278:0 279:0 280:0 281:0 282:0 283:0 284:0 285:0 286:0 287:3.7037001 288:0 289:0 290:0 291:0 292:3.7037001 293:0 294:0 295:0 296:0 297:3.7037001 298:0 299:0 300:0 301:0 302:0 303:0 304:0 305:0 306:0 307:0 308:0 309:0 310:0 311:3.7037001 312:0 313:0 314:0 315:0 316:0 317:0 318:0 319:3.7037001 320:0 321:0 322:0 323:0 324:0 325:0 326:0 327:0 328:0 329:0 330:3.7037001 331:0 332:0 333:0 334:0 335:3.7037001 336:0 337:0 338:0 339:0 340:0 341:0 342:0 343:-0.41600001 344:-0.22 345:-0.211 346:-0.32600001 347:-0.236 348:-0.208 349:-0.235 350:-0.68400002 351:-2.934 352:-0.67199999 353:-0.266 354:-0.47 355:-0.42199999 356:-0.37200001 #
200 1:30 2:16.6667 3:23.3333 4:30 5:10.3448 6:6.8965998 7:3.4482999 8:10.3448 9:6.8965998 10:0 11:3.4482999 12:6.8965998 13:3.4482999 14:6.8965998 15:6.8965998 16:6.8965998 17:10.3448 18:3.4482999 19:10.3448 20:3.4482999 21:3.5713999 22:3.5713999 23:0 24:3.5713999 25:3.5713999 26:0 27:3.5713999 28:0 29:0 30:0 31:3.5713999 32:0 33:0 34:3.5713999 35:7.1429 36:0 37:3.5713999 38:0 39:3.5713999 40:0 41:0 42:0 43:0 44:0 45:0 46:0 47:0 48:3.5713999 49:0 50:0 51:0 52:3.5713999 53:0 54:3.5713999 55:0 56:0 57:3.5713999 58:0 59:0 60:3.5713999 61:3.5713999 62:0 63:0 64:3.5713999 65:7.1429 66:0 67:0 68:0 69:3.5713999 70:0 71:0 72:7.1429 73:0 74:0 75:0 76:3.5713999 77:0 78:7.1429 79:3.5713999 80:0 81:3.5713999 82:0 83:0 84:0 85:0 86:0 87:0 88:3.7037001 89:0 90:0 91:3.7037001 92:0 93:0 94:0 95:0 96:0 97:0 98:0 99:3.7037001 100:0 101:0 102:0 103:3.7037001 104:0 105:0 106:0 107:0 108:0 109:0 110:0 111:0 112:3.7037001 113:0 114:0 115:0 116:0 117:0 118:0 119:0 120:0 121:0 122:0 123:0 124:0 125:0 126:0 127:0 128:3.7037001 129:0 130:0 131:0 132:0 133:0 134:0 135:0 136:0 137:0 138:0 139:0 140:3.7037001 141:0 142:7.4074001 143:0 144:0 145:0 146:0 147:0 148:0 149:0 150:3.7037001 151:0 152:0 153:0 154:0 155:0 156:0 157:0 158:0 159:3.7037001 160:0 161:0 162:0 163:0 164:0 165:0 166:0 167:0 168:0 169:0 170:0 171:0 172:0 173:0 174:0 175:0 176:0 177:0 178:0 179:0 180:0 181:0 182:0 183:0 184:0 185:0 186:0 187:0 188:0 189:0 190:0 191:0 192:0 193:3.7037001 194:0 195:0 196:0 197:0 198:0 199:0 200:0 201:0 202:0 203:0 204:0 205:0 206:0 207:0 208:0 209:3.7037001 210:0 211:0 212:0 213:0 214:0 215:0 216:0 217:3.7037001 218:0 219:0 220:0 221:0 222:0 223:0 224:0 225:0 226:0 227:0 228:0 229:3.7037001 230:0 231:0 232:0 233:0 234:0 235:0 236:0 237:0 238:0 239:0 240:0 241:0 242:0 243:0 244:0 245:0 246:3.7037001 247:0 248:0 249:0 250:0 251:0 252:0 253:0 254:0 255:0 256:0 257:3.7037001 258:0 259:0 260:0 261:0 262:0 263:0 264:7.4074001 265:0 266:0 267:0 268:0 269:0 270:0 271:0 272:0 273:0 274:0 275:0 276:0 277:3.7037001 278:0 279:0 280:0 281:0 282:0 283:0 284:0 285:0 286:0 287:0 288:0 289:0 290:3.7037001 291:3.7037001 292:0 293:0 294:0 295:0 296:0 297:0 298:0 299:0 300:0 301:0 302:0 303:0 304:0 305:0 306:0 307:0 308:3.7037001 309:0 310:0 311:0 312:0 313:3.7037001 314:0 315:0 316:3.7037001 317:3.7037001 318:0 319:0 320:0 321:0 322:0 323:0 324:0 325:3.7037001 326:0 327:0 328:0 329:0 330:0 331:0 332:0 333:0 334:0 335:0 336:0 337:0 338:0 339:0 340:0 341:-0.27900001 342:-0.44800001 343:-0.208 344:-0.33000001 345:-0.42199999 346:-0.32600001 347:-0.236 348:-0.41600001 349:-0.235 350:-1.026 351:-0.97799999 352:-0.67199999 353:-0.39899999 354:-0.235 355:-0.63300002 356:-0.093000002 #
-200 1:21.4286 2:10.7143 3:46.4286 4:21.4286 5:3.7037001 6:0 7:14.8148 8:3.7037001 9:3.7037001 10:0 11:0 12:3.7037001 13:14.8148 14:11.1111 15:18.518499 16:3.7037001 17:0 18:0 19:11.1111 20:11.1111 21:0 22:0 23:0 24:3.8462 25:0 26:0 27:0 28:0 29:3.8462 30:3.8462 31:7.6922998 32:0 33:0 34:0 35:0 36:3.8462 37:0 38:0 39:3.8462 40:0 41:0 42:0 43:0 44:0 45:0 46:0 47:0 48:0 49:0 50:0 51:0 52:3.8462 53:3.8462 54:0 55:11.5385 56:0 57:3.8462 58:0 59:0 60:3.8462 61:3.8462 62:3.8462 63:7.6922998 64:3.8462 65:0 66:0 67:0 68:3.8462 69:0 70:0 71:0 72:0 73:0 74:0 75:0 76:0 77:7.6922998 78:3.8462 79:0 80:0 81:0 82:0 83:11.5385 84:0 85:0 86:0 87:0 88:0 89:0 90:0 91:0 92:0 93:0 94:0 95:0 96:0 97:0 98:0 99:0 100:4 101:0 102:0 103:0 104:0 105:0 106:0 107:0 108:0 109:0 110:0 111:0 112:0 113:0 114:0 115:0 116:0 117:0 118:0 119:4 120:0 121:0 122:0 123:0 124:0 125:0 126:4 127:0 128:4 129:0 130:0 131:0 132:0 133:0 134:0 135:0 136:0 137:0 138:0 139:0 140:0 141:0 142:0 143:0 144:0 145:0 146:0 147:4 148:0 149:0 150:0 151:0 152:0 153:0 154:0 155:0 156:0 157:0 158:0 159:4 160:0 161:0 162:0 163:0 164:0 165:0 166:0 167:0 168:0 169:0 170:0 171:0 172:0 173:0 174:0 175:0 176:0 177:0 178:0 179:0 180:0 181:0 182:0 183:0 184:0 185:0 186:0 187:0 188:0 189:0 190:0 191:0 192:0 193:0 194:0 195:0 196:0 197:0 198:0 199:0 200:0 201:0 202:0 203:0 204:0 205:0 206:0 207:0 208:0 209:0 210:0 211:4 212:0 213:0 214:0 215:0 216:4 217:0 218:0 219:0 220:0 221:4 222:4 223:4 224:0 225:0 226:0 227:0 228:0 229:0 230:0 231:4 232:0 233:0 234:0 235:0 236:0 237:0 238:0 239:0 240:0 241:0 242:0 243:0 244:4 245:4 246:0 247:0 248:0 249:4 250:0 251:0 252:0 253:4 254:0 255:4 256:0 257:0 258:0 259:0 260:4 261:0 262:0 263:0 264:0 265:0 266:0 267:0 268:0 269:0 270:0 271:0 272:0 273:0 274:0 275:4 276:0 277:0 278:0 279:0 280:0 281:0 282:0 283:0 284:0 285:0 286:0 287:0 288:0 289:0 290:0 291:0 292:0 293:0 294:0 295:0 296:0 297:0 298:0 299:0 300:0 301:0 302:0 303:0 304:0 305:0 306:0 307:0 308:0 309:0 310:0 311:8 312:0 313:0 314:0 315:0 316:4 317:0 318:0 319:0 320:0 321:0 322:0 323:0 324:0 325:0 326:0 327:0 328:0 329:0 330:0 331:0 332:0 333:8 334:4 335:0 336:0 337:0 338:0 339:0 340:0 341:-0.093000002 342:0 343:-0.83200002 344:-0.11 345:-0.211 346:0 347:0 348:-0.208 349:-0.94 350:-1.026 351:-2.2820001 352:-0.44800001 353:0 354:0 355:-0.84399998 356:-0.465 #
51.381674741817278118105605244637 1:45.161301 2:19.354799 3:12.9032 4:22.580601 5:16.6667 6:13.3333 7:13.3333 8:0 9:10 10:0 11:0 12:10 13:3.3333001 14:3.3333001 15:0 16:6.6666999 17:16.6667 18:3.3333001 19:0 20:3.3333001 21:6.8965998 22:3.4482999 23:6.8965998 24:0 25:6.8965998 26:0 27:0 28:6.8965998 29:3.4482999 30:3.4482999 31:0 32:6.8965998 33:0 34:0 35:0 36:0 37:3.4482999 38:0 39:3.4482999 40:0 41:0 42:0 43:0 44:0 45:0 46:0 47:0 48:0 49:6.8965998 50:0 51:0 52:3.4482999 53:0 54:3.4482999 55:0 56:0 57:3.4482999 58:0 59:0 60:0 61:0 62:0 63:0 64:0 65:6.8965998 66:0 67:0 68:0 69:6.8965998 70:6.8965998 71:3.4482999 72:0 73:0 74:0 75:0 76:3.4482999 77:0 78:0 79:0 80:0 81:0 82:3.4482999 83:0 84:0 85:3.5713999 86:3.5713999 87:0 88:0 89:3.5713999 90:0 91:0 92:0 93:0 94:0 95:0 96:7.1429 97:0 98:0 99:0 100:0 101:3.5713999 102:0 103:3.5713999 104:0 105:0 106:0 107:0 108:0 109:0 110:0 111:0 112:0 113:3.5713999 114:0 115:0 116:3.5713999 117:0 118:3.5713999 119:0 120:0 121:3.5713999 122:0 123:0 124:0 125:0 126:0 127:0 128:0 129:7.1429 130:0 131:0 132:0 133:0 134:0 135:0 136:0 137:0 138:0 139:0 140:0 141:0 142:0 143:0 144:0 145:0 146:0 147:0 148:0 149:0 150:0 151:3.5713999 152:0 153:0 154:0 155:0 156:0 157:0 158:3.5713999 159:0 160:0 161:0 162:0 163:0 164:0 165:0 166:0 167:0 168:0 169:0 170:0 171:0 172:0 173:0 174:0 175:0 176:0 177:0 178:0 179:0 180:0 181:0 182:0 183:0 184:0 185:0 186:0 187:0 188:0 189:0 190:0 191:0 192:0 193:0 194:0 195:0 196:0 197:3.5713999 198:0 199:3.5713999 200:0 201:0 202:0 203:0 204:0 205:0 206:0 207:0 208:0 209:0 210:3.5713999 211:0 212:0 213:0 214:0 215:0 216:0 217:3.5713999 218:0 219:0 220:0 221:0 222:0 223:0 224:0 225:0 226:0 227:0 228:0 229:0 230:0 231:0 232:0 233:0 234:0 235:0 236:0 237:0 238:0 239:0 240:0 241:0 242:0 243:0 244:0 245:0 246:0 247:0 248:0 249:0 250:0 251:0 252:0 253:0 254:0 255:0 256:0 257:0 258:0 259:0 260:0 261:0 262:7.1429 263:0 264:0 265:0 266:0 267:0 268:0 269:0 270:0 271:0 272:0 273:0 274:0 275:0 276:0 277:3.5713999 278:0 279:3.5713999 280:0 281:0 282:0 283:0 284:7.1429 285:3.5713999 286:0 287:0 288:0 289:0 290:0 291:0 292:0 293:0 294:0 295:0 296:0 297:0 298:0 299:0 300:0 301:0 302:0 303:0 304:0 305:3.5713999 306:0 307:0 308:0 309:0 310:0 311:0 312:0 313:0 314:0 315:0 316:0 317:0 318:0 319:0 320:0 321:0 322:0 323:0 324:0 325:0 326:0 327:0 328:0 329:0 330:0 331:0 332:3.5713999 333:0 334:0 335:0 336:0 337:0 338:0 339:0 340:0 341:-0.465 342:-0.89600003 343:-0.83200002 344:0 345:-0.63300002 346:0 347:0 348:-0.62400001 349:-0.235 350:-0.34200001 351:0 352:-0.44800001 353:-0.66500002 354:-0.47 355:0 356:-0.093000002 #
-200 1:29.032301 2:25.806499 3:19.354799 4:25.806499 5:6.6666999 6:6.6666999 7:3.3333001 8:13.3333 9:6.6666999 10:13.3333 11:3.3333001 12:3.3333001 13:6.6666999 14:3.3333001 15:6.6666999 16:3.3333001 17:10 18:3.3333001 19:6.6666999 20:3.3333001 21:0 22:6.8965998 23:0 24:0 25:0 26:3.4482999 27:0 28:3.4482999 29:0 30:0 31:3.4482999 32:0 33:6.8965998 34:0 35:0 36:3.4482999 37:0 38:0 39:3.4482999 40:3.4482999 41:3.4482999 42:6.8965998 43:3.4482999 44:0 45:0 46:3.4482999 47:0 48:0 49:0 50:3.4482999 51:0 52:0 53:0 54:0 55:0 56:6.8965998 57:3.4482999 58:0 59:0 60:0 61:6.8965998 62:0 63:0 64:0 65:3.4482999 66:0 67:0 68:0 69:6.8965998 70:0 71:0 72:3.4482999 73:0 74:3.4482999 75:0 76:0 77:0 78:0 79:3.4482999 80:3.4482999 81:0 82:0 83:3.4482999 84:0 85:0 86:0 87:0 88:0 89:0 90:3.5713999 91:0 92:3.5713999 93:0 94:0 95:0 96:0 97:0 98:0 99:0 100:0 101:0 102:0 103:0 104:0 105:0 106:3.5713999 107:0 108:0 109:0 110:0 111:0 112:0 113:0 114:3.5713999 115:0 116:0 117:0 118:0 119:0 120:0 121:0 122:0 123:0 124:0 125:3.5713999 126:0 127:0 128:0 129:0 130:0 131:0 132:0 133:3.5713999 134:0 135:0 136:3.5713999 137:0 138:0 139:0 140:0 141:0 142:0 143:0 144:0 145:0 146:0 147:3.5713999 148:0 149:0 150:0 151:0 152:0 153:0 154:0 155:0 156:0 157:0 158:0 159:3.5713999 160:0 161:0 162:0 163:0 164:3.5713999 165:0 166:0 167:0 168:3.5713999 169:0 170:3.5713999 171:3.5713999 172:0 173:0 174:3.5713999 175:0 176:0 177:0 178:0 179:0 180:0 181:0 182:0 183:0 184:0 185:3.5713999 186:0 187:0 188:0 189:0 190:0 191:0 192:0 193:0 194:0 195:0 196:0 197:0 198:0 199:0 200:0 201:0 202:3.5713999 203:0 204:0 205:0 206:0 207:0 208:0 209:0 210:0 211:0 212:0 213:0 214:0 215:0 216:0 217:0 218:0 219:0 220:0 221:0 222:0 223:0 224:0 225:7.1429 226:0 227:0 228:0 229:0 230:0 231:3.5713999 232:0 233:0 234:0 235:0 236:0 237:0 238:0 239:0 240:0 241:0 242:0 243:0 244:0 245:0 246:0 247:0 248:7.1429 249:0 250:0 251:0 252:0 253:0 254:0 255:0 256:0 257:0 258:0 259:0 260:0 261:3.5713999 262:0 263:0 264:0 265:0 266:0 267:0 268:0 269:0 270:0 271:0 272:0 273:0 274:0 275:0 276:0 277:0 278:7.1429 279:0 280:0 281:0 282:0 283:0 284:0 285:0 286:0 287:0 288:0 289:0 290:0 291:0 292:0 293:0 294:0 295:0 296:0 297:3.5713999 298:0 299:0 300:0 301:0 302:0 303:0 304:0 305:0 306:0 307:0 308:0 309:0 310:0 311:0 312:0 313:0 314:0 315:0 316:0 317:3.5713999 318:0 319:0 320:0 321:3.5713999 322:0 323:0 324:0 325:0 326:0 327:0 328:0 329:0 330:0 331:0 332:0 333:0 334:0 335:3.5713999 336:0 337:0 338:0 339:0 340:0 341:-0.186 342:-0.44800001 343:-0.208 344:-0.44 345:-0.42199999 346:-1.304 347:-0.236 348:-0.208 349:-0.47 350:-0.34200001 351:-0.65200001 352:-0.44800001 353:-0.39899999 354:-0.235 355:-0.42199999 356:-0.27900001 #
37.805285617124354757834225893021 1:36.666698 2:33.333302 3:16.6667 4:13.3333 5:6.8965998 6:10.3448 7:13.7931 8:3.4482999 9:17.2414 10:10.3448 11:3.4482999 12:3.4482999 13:3.4482999 14:10.3448 15:0 16:3.4482999 17:10.3448 18:3.4482999 19:0 20:0 21:0 22:3.5713999 23:0 24:0 25:7.1429 26:0 27:0 28:3.5713999 29:3.5713999 30:10.7143 31:0 32:0 33:3.5713999 34:0 35:0 36:0 37:3.5713999 38:0 39:10.7143 40:3.5713999 41:7.1429 42:3.5713999 43:0 44:0 45:0 46:0 47:0 48:3.5713999 49:3.5713999 50:0 51:0 52:0 53:3.5713999 54:0 55:0 56:0 57:0 58:7.1429 59:3.5713999 60:0 61:0 62:0 63:0 64:0 65:0 66:3.5713999 67:0 68:0 69:0 70:7.1429 71:3.5713999 72:0 73:3.5713999 74:0 75:0 76:0 77:0 78:0 79:0 80:0 81:0 82:0 83:0 84:0 85:0 86:0 87:0 88:0 89:0 90:0 91:0 92:3.7037001 93:0 94:0 95:0 96:0 97:0 98:0 99:0 100:0 101:0 102:0 103:3.7037001 104:3.7037001 105:0 106:0 107:0 108:0 109:0 110:0 111:0 112:0 113:3.7037001 114:0 115:0 116:0 117:3.7037001 118:0 119:0 120:0 121:0 122:7.4074001 123:3.7037001 124:0 125:0 126:0 127:0 128:0 129:0 130:0 131:0 132:0 133:0 134:3.7037001 135:0 136:0 137:0 138:0 139:0 140:0 141:0 142:0 143:0 144:0 145:0 146:0 147:0 148:0 149:0 150:0 151:0 152:0 153:0 154:0 155:0 156:0 157:0 158:11.1111 159:0 160:0 161:3.7037001 162:0 163:0 164:0 165:3.7037001 166:0 167:3.7037001 168:0 169:3.7037001 170:0 171:0 172:0 173:0 174:0 175:0 176:0 177:0 178:0 179:0 180:0 181:0 182:0 183:0 184:0 185:0 186:0 187:0 188:0 189:0 190:0 191:0 192:0 193:0 194:3.7037001 195:0 196:0 197:0 198:3.7037001 199:0 200:0 201:0 202:0 203:0 204:0 205:0 206:0 207:0 208:0 209:0 210:0 211:0 212:0 213:0 214:3.7037001 215:0 216:0 217:0 218:0 219:0 220:0 221:0 222:0 223:0 224:0 225:0 226:0 227:0 228:0 229:0 230:0 231:0 232:0 233:3.7037001 234:3.7037001 235:0 236:0 237:0 238:0 239:0 240:3.7037001 241:0 242:0 243:0 244:0 245:0 246:0 247:0 248:0 249:0 250:0 251:0 252:0 253:0 254:0 255:0 256:0 257:0 258:0 259:0 260:0 261:0 262:0 263:0 264:0 265:3.7037001 266:0 267:0 268:0 269:0 270:0 271:0 272:0 273:0 274:0 275:0 276:0 277:0 278:0 279:0 280:0 281:7.4074001 282:0 283:0 284:0 285:3.7037001 286:0 287:0 288:0 289:0 290:0 291:0 292:0 293:0 294:0 295:3.7037001 296:0 297:0 298:0 299:0 300:0 301:0 302:0 303:0 304:0 305:0 306:0 307:0 308:0 309:0 310:0 311:0 312:0 313:0 314:0 315:0 316:0 317:0 318:0 319:0 320:0 321:0 322:0 323:0 324:0 325:0 326:0 327:0 328:0 329:0 330:0 331:0 332:0 333:0 334:0 335:0 336:0 337:0 338:0 339:0 340:0 341:-0.186 342:-0.67199999 343:-0.83200002 344:-0.11 345:-1.0549999 346:-1.304 347:-0.236 348:-0.208 349:-0.235 350:-1.368 351:-0.32600001 352:-0.44800001 353:-0.39899999 354:-0.235 355:0 356:0 #
200 1:29.032301 2:16.129 3:16.129 4:38.709702 5:0 6:13.3333 7:6.6666999 8:10 9:10 10:0 11:0 12:6.6666999 13:6.6666999 14:3.3333001 15:0 16:3.3333001 17:13.3333 18:0 19:10 20:16.6667 21:0 22:0 23:0 24:0 25:10.3448 26:0 27:0 28:3.4482999 29:3.4482999 30:0 31:0 32:3.4482999 33:0 34:0 35:0 36:10.3448 37:0 38:0 39:3.4482999 40:6.8965998 41:0 42:0 43:0 44:0 45:0 46:0 47:0 48:0 49:3.4482999 50:0 51:3.4482999 52:0 53:0 54:3.4482999 55:0 56:3.4482999 57:0 58:0 59:0 60:3.4482999 61:0 62:0 63:0 64:0 65:3.4482999 66:0 67:0 68:0 69:0 70:10.3448 71:3.4482999 72:0 73:0 74:0 75:0 76:0 77:3.4482999 78:3.4482999 79:0 80:0 81:6.8965998 82:0 83:6.8965998 84:3.4482999 85:0 86:0 87:0 88:0 89:0 90:0 91:0 92:0 93:0 94:0 95:0 96:0 97:0 98:0 99:0 100:0 101:0 102:0 103:3.5713999 104:7.1429 105:0 106:0 107:0 108:0 109:0 110:0 111:0 112:0 113:3.5713999 114:0 115:0 116:0 117:0 118:3.5713999 119:0 120:0 121:0 122:0 123:0 124:0 125:0 126:0 127:0 128:0 129:3.5713999 130:0 131:0 132:0 133:0 134:0 135:0 136:0 137:0 138:0 139:0 140:0 141:0 142:0 143:0 144:0 145:3.5713999 146:0 147:3.5713999 148:3.5713999 149:0 150:0 151:0 152:0 153:0 154:0 155:0 156:0 157:0 158:0 159:0 160:3.5713999 161:0 162:0 163:0 164:7.1429 165:0 166:0 167:0 168:0 169:0 170:0 171:0 172:0 173:0 174:0 175:0 176:0 177:0 178:0 179:0 180:0 181:0 182:0 183:0 184:0 185:0 186:0 187:0 188:0 189:0 190:0 191:0 192:0 193:0 194:0 195:0 196:0 197:0 198:0 199:3.5713999 200:0 201:0 202:0 203:0 204:0 205:0 206:0 207:0 208:0 209:0 210:0 211:0 212:0 213:0 214:0 215:0 216:0 217:3.5713999 218:0 219:0 220:0 221:0 222:0 223:0 224:0 225:0 226:0 227:0 228:3.5713999 229:0 230:0 231:0 232:0 233:0 234:0 235:0 236:0 237:0 238:0 239:0 240:0 241:0 242:0 243:3.5713999 244:0 245:0 246:0 247:0 248:0 249:0 250:0 251:0 252:0 253:0 254:0 255:0 256:0 257:0 258:0 259:0 260:0 261:0 262:3.5713999 263:0 264:0 265:0 266:0 267:0 268:0 269:0 270:0 271:0 272:0 273:0 274:0 275:0 276:0 277:0 278:0 279:0 280:0 281:7.1429 282:0 283:0 284:3.5713999 285:3.5713999 286:0 287:0 288:0 289:0 290:0 291:0 292:0 293:0 294:0 295:0 296:0 297:0 298:0 299:0 300:0 301:0 302:0 303:0 304:0 305:0 306:0 307:0 308:0 309:0 310:0 311:0 312:3.5713999 313:0 314:0 315:0 316:3.5713999 317:0 318:0 319:0 320:0 321:0 322:0 323:0 324:0 325:0 326:7.1429 327:0 328:0 329:0 330:0 331:0 332:0 333:3.5713999 334:3.5713999 335:0 336:0 337:0 338:0 339:3.5713999 340:0 341:0 342:-0.89600003 343:-0.41600001 344:-0.33000001 345:-0.63300002 346:-0.32600001 347:0 348:-0.41600001 349:-0.47 350:-0.68400002 351:-0.32600001 352:-0.22400001 353:-0.53200001 354:0 355:-0.63300002 356:-0.465 #
